digraph Tree {
node [shape=box, fontname="helvetica"] ;
edge [fontname="helvetica"] ;
0 [label="X[0] <= 53.006\ngini = 0.5\nsamples = 7777\nvalue = [3864, 3913]"] ;
1 [label="X[0] <= 45.008\ngini = 0.242\nsamples = 2980\nvalue = [2561, 419]"] ;
0 -> 1 [labeldistance=2.5, labelangle=45, headlabel="True"] ;
2 [label="X[11] <= 0.009\ngini = 0.119\nsamples = 2216\nvalue = [2075, 141]"] ;
1 -> 2 ;
3 [label="X[3] <= 83.811\ngini = 0.079\nsamples = 2027\nvalue = [1943, 84]"] ;
2 -> 3 ;
4 [label="X[5] <= 0.03\ngini = 0.162\nsamples = 865\nvalue = [788, 77]"] ;
3 -> 4 ;
5 [label="X[3] <= 67.712\ngini = 0.035\nsamples = 500\nvalue = [491, 9]"] ;
4 -> 5 ;
6 [label="X[3] <= 67.687\ngini = 0.09\nsamples = 169\nvalue = [161, 8]"] ;
5 -> 6 ;
7 [label="X[4] <= 24.621\ngini = 0.08\nsamples = 168\nvalue = [161, 7]"] ;
6 -> 7 ;
8 [label="gini = 0.0\nsamples = 100\nvalue = [100, 0]"] ;
7 -> 8 ;
9 [label="X[0] <= 14.5\ngini = 0.185\nsamples = 68\nvalue = [61, 7]"] ;
7 -> 9 ;
10 [label="X[6] <= 0.831\ngini = 0.5\nsamples = 14\nvalue = [7, 7]"] ;
9 -> 10 ;
11 [label="X[7] <= 0.027\ngini = 0.42\nsamples = 10\nvalue = [3, 7]"] ;
10 -> 11 ;
12 [label="X[0] <= 12.0\ngini = 0.375\nsamples = 4\nvalue = [3, 1]"] ;
11 -> 12 ;
13 [label="gini = 0.0\nsamples = 3\nvalue = [3, 0]"] ;
12 -> 13 ;
14 [label="gini = 0.0\nsamples = 1\nvalue = [0, 1]"] ;
12 -> 14 ;
15 [label="gini = 0.0\nsamples = 6\nvalue = [0, 6]"] ;
11 -> 15 ;
16 [label="gini = 0.0\nsamples = 4\nvalue = [4, 0]"] ;
10 -> 16 ;
17 [label="gini = 0.0\nsamples = 54\nvalue = [54, 0]"] ;
9 -> 17 ;
18 [label="gini = 0.0\nsamples = 1\nvalue = [0, 1]"] ;
6 -> 18 ;
19 [label="X[0] <= 1.44\ngini = 0.006\nsamples = 331\nvalue = [330, 1]"] ;
5 -> 19 ;
20 [label="X[3] <= 72.04\ngini = 0.18\nsamples = 10\nvalue = [9, 1]"] ;
19 -> 20 ;
21 [label="X[3] <= 70.35\ngini = 0.444\nsamples = 3\nvalue = [2, 1]"] ;
20 -> 21 ;
22 [label="gini = 0.0\nsamples = 2\nvalue = [2, 0]"] ;
21 -> 22 ;
23 [label="gini = 0.0\nsamples = 1\nvalue = [0, 1]"] ;
21 -> 23 ;
24 [label="gini = 0.0\nsamples = 7\nvalue = [7, 0]"] ;
20 -> 24 ;
25 [label="gini = 0.0\nsamples = 321\nvalue = [321, 0]"] ;
19 -> 25 ;
26 [label="X[5] <= 0.986\ngini = 0.303\nsamples = 365\nvalue = [297, 68]"] ;
4 -> 26 ;
27 [label="gini = 0.0\nsamples = 25\nvalue = [0, 25]"] ;
26 -> 27 ;
28 [label="X[16] <= 0.072\ngini = 0.221\nsamples = 340\nvalue = [297, 43]"] ;
26 -> 28 ;
29 [label="X[3] <= 82.943\ngini = 0.124\nsamples = 255\nvalue = [238, 17]"] ;
28 -> 29 ;
30 [label="X[3] <= 80.085\ngini = 0.065\nsamples = 236\nvalue = [228, 8]"] ;
29 -> 30 ;
31 [label="X[0] <= 44.5\ngini = 0.01\nsamples = 191\nvalue = [190, 1]"] ;
30 -> 31 ;
32 [label="gini = 0.0\nsamples = 176\nvalue = [176, 0]"] ;
31 -> 32 ;
33 [label="X[3] <= 64.75\ngini = 0.124\nsamples = 15\nvalue = [14, 1]"] ;
31 -> 33 ;
34 [label="X[4] <= 30.45\ngini = 0.375\nsamples = 4\nvalue = [3, 1]"] ;
33 -> 34 ;
35 [label="gini = 0.0\nsamples = 1\nvalue = [0, 1]"] ;
34 -> 35 ;
36 [label="gini = 0.0\nsamples = 3\nvalue = [3, 0]"] ;
34 -> 36 ;
37 [label="gini = 0.0\nsamples = 11\nvalue = [11, 0]"] ;
33 -> 37 ;
38 [label="X[0] <= 41.176\ngini = 0.263\nsamples = 45\nvalue = [38, 7]"] ;
30 -> 38 ;
39 [label="gini = 0.0\nsamples = 26\nvalue = [26, 0]"] ;
38 -> 39 ;
40 [label="X[6] <= 0.11\ngini = 0.465\nsamples = 19\nvalue = [12, 7]"] ;
38 -> 40 ;
41 [label="gini = 0.0\nsamples = 9\nvalue = [9, 0]"] ;
40 -> 41 ;
42 [label="X[4] <= 29.858\ngini = 0.42\nsamples = 10\nvalue = [3, 7]"] ;
40 -> 42 ;
43 [label="gini = 0.0\nsamples = 7\nvalue = [0, 7]"] ;
42 -> 43 ;
44 [label="gini = 0.0\nsamples = 3\nvalue = [3, 0]"] ;
42 -> 44 ;
45 [label="X[3] <= 83.425\ngini = 0.499\nsamples = 19\nvalue = [10, 9]"] ;
29 -> 45 ;
46 [label="X[0] <= 36.5\ngini = 0.298\nsamples = 11\nvalue = [2, 9]"] ;
45 -> 46 ;
47 [label="gini = 0.0\nsamples = 2\nvalue = [2, 0]"] ;
46 -> 47 ;
48 [label="gini = 0.0\nsamples = 9\nvalue = [0, 9]"] ;
46 -> 48 ;
49 [label="gini = 0.0\nsamples = 8\nvalue = [8, 0]"] ;
45 -> 49 ;
50 [label="X[16] <= 0.974\ngini = 0.425\nsamples = 85\nvalue = [59, 26]"] ;
28 -> 50 ;
51 [label="gini = 0.0\nsamples = 24\nvalue = [0, 24]"] ;
50 -> 51 ;
52 [label="X[1] <= 0.5\ngini = 0.063\nsamples = 61\nvalue = [59, 2]"] ;
50 -> 52 ;
53 [label="X[0] <= 32.5\ngini = 0.033\nsamples = 59\nvalue = [58, 1]"] ;
52 -> 53 ;
54 [label="X[0] <= 31.5\ngini = 0.1\nsamples = 19\nvalue = [18, 1]"] ;
53 -> 54 ;
55 [label="gini = 0.0\nsamples = 15\nvalue = [15, 0]"] ;
54 -> 55 ;
56 [label="X[4] <= 30.95\ngini = 0.375\nsamples = 4\nvalue = [3, 1]"] ;
54 -> 56 ;
57 [label="X[7] <= 0.5\ngini = 0.5\nsamples = 2\nvalue = [1, 1]"] ;
56 -> 57 ;
58 [label="gini = 0.0\nsamples = 1\nvalue = [0, 1]"] ;
57 -> 58 ;
59 [label="gini = 0.0\nsamples = 1\nvalue = [1, 0]"] ;
57 -> 59 ;
60 [label="gini = 0.0\nsamples = 2\nvalue = [2, 0]"] ;
56 -> 60 ;
61 [label="gini = 0.0\nsamples = 40\nvalue = [40, 0]"] ;
53 -> 61 ;
62 [label="X[3] <= 66.265\ngini = 0.5\nsamples = 2\nvalue = [1, 1]"] ;
52 -> 62 ;
63 [label="gini = 0.0\nsamples = 1\nvalue = [0, 1]"] ;
62 -> 63 ;
64 [label="gini = 0.0\nsamples = 1\nvalue = [1, 0]"] ;
62 -> 64 ;
65 [label="X[0] <= 40.049\ngini = 0.012\nsamples = 1162\nvalue = [1155, 7]"] ;
3 -> 65 ;
66 [label="gini = 0.0\nsamples = 1001\nvalue = [1001, 0]"] ;
65 -> 66 ;
67 [label="X[0] <= 40.821\ngini = 0.083\nsamples = 161\nvalue = [154, 7]"] ;
65 -> 67 ;
68 [label="gini = 0.0\nsamples = 3\nvalue = [0, 3]"] ;
67 -> 68 ;
69 [label="X[4] <= 55.8\ngini = 0.049\nsamples = 158\nvalue = [154, 4]"] ;
67 -> 69 ;
70 [label="X[14] <= 0.5\ngini = 0.038\nsamples = 156\nvalue = [153, 3]"] ;
69 -> 70 ;
71 [label="gini = 0.0\nsamples = 123\nvalue = [123, 0]"] ;
70 -> 71 ;
72 [label="X[4] <= 30.35\ngini = 0.165\nsamples = 33\nvalue = [30, 3]"] ;
70 -> 72 ;
73 [label="X[4] <= 29.9\ngini = 0.32\nsamples = 15\nvalue = [12, 3]"] ;
72 -> 73 ;
74 [label="X[3] <= 95.214\ngini = 0.245\nsamples = 14\nvalue = [12, 2]"] ;
73 -> 74 ;
75 [label="gini = 0.0\nsamples = 7\nvalue = [7, 0]"] ;
74 -> 75 ;
76 [label="X[3] <= 96.742\ngini = 0.408\nsamples = 7\nvalue = [5, 2]"] ;
74 -> 76 ;
77 [label="gini = 0.0\nsamples = 2\nvalue = [0, 2]"] ;
76 -> 77 ;
78 [label="gini = 0.0\nsamples = 5\nvalue = [5, 0]"] ;
76 -> 78 ;
79 [label="gini = 0.0\nsamples = 1\nvalue = [0, 1]"] ;
73 -> 79 ;
80 [label="gini = 0.0\nsamples = 18\nvalue = [18, 0]"] ;
72 -> 80 ;
81 [label="X[6] <= 0.5\ngini = 0.5\nsamples = 2\nvalue = [1, 1]"] ;
69 -> 81 ;
82 [label="gini = 0.0\nsamples = 1\nvalue = [0, 1]"] ;
81 -> 82 ;
83 [label="gini = 0.0\nsamples = 1\nvalue = [1, 0]"] ;
81 -> 83 ;
84 [label="X[11] <= 0.983\ngini = 0.421\nsamples = 189\nvalue = [132, 57]"] ;
2 -> 84 ;
85 [label="gini = 0.0\nsamples = 54\nvalue = [0, 54]"] ;
84 -> 85 ;
86 [label="X[4] <= 43.07\ngini = 0.043\nsamples = 135\nvalue = [132, 3]"] ;
84 -> 86 ;
87 [label="X[14] <= 0.5\ngini = 0.016\nsamples = 128\nvalue = [127, 1]"] ;
86 -> 87 ;
88 [label="gini = 0.0\nsamples = 106\nvalue = [106, 0]"] ;
87 -> 88 ;
89 [label="X[5] <= 0.5\ngini = 0.087\nsamples = 22\nvalue = [21, 1]"] ;
87 -> 89 ;
90 [label="X[0] <= 37.5\ngini = 0.245\nsamples = 7\nvalue = [6, 1]"] ;
89 -> 90 ;
91 [label="gini = 0.0\nsamples = 6\nvalue = [6, 0]"] ;
90 -> 91 ;
92 [label="gini = 0.0\nsamples = 1\nvalue = [0, 1]"] ;
90 -> 92 ;
93 [label="gini = 0.0\nsamples = 15\nvalue = [15, 0]"] ;
89 -> 93 ;
94 [label="X[7] <= 0.408\ngini = 0.408\nsamples = 7\nvalue = [5, 2]"] ;
86 -> 94 ;
95 [label="gini = 0.0\nsamples = 5\nvalue = [5, 0]"] ;
94 -> 95 ;
96 [label="gini = 0.0\nsamples = 2\nvalue = [0, 2]"] ;
94 -> 96 ;
97 [label="X[10] <= 0.0\ngini = 0.463\nsamples = 764\nvalue = [486, 278]"] ;
1 -> 97 ;
98 [label="X[3] <= 131.02\ngini = 0.137\nsamples = 203\nvalue = [188, 15]"] ;
97 -> 98 ;
99 [label="X[5] <= 0.759\ngini = 0.058\nsamples = 166\nvalue = [161, 5]"] ;
98 -> 99 ;
100 [label="X[5] <= 0.107\ngini = 0.426\nsamples = 13\nvalue = [9, 4]"] ;
99 -> 100 ;
101 [label="X[15] <= 0.5\ngini = 0.18\nsamples = 10\nvalue = [9, 1]"] ;
100 -> 101 ;
102 [label="gini = 0.0\nsamples = 7\nvalue = [7, 0]"] ;
101 -> 102 ;
103 [label="X[11] <= 0.5\ngini = 0.444\nsamples = 3\nvalue = [2, 1]"] ;
101 -> 103 ;
104 [label="gini = 0.0\nsamples = 1\nvalue = [0, 1]"] ;
103 -> 104 ;
105 [label="gini = 0.0\nsamples = 2\nvalue = [2, 0]"] ;
103 -> 105 ;
106 [label="gini = 0.0\nsamples = 3\nvalue = [0, 3]"] ;
100 -> 106 ;
107 [label="X[14] <= 0.5\ngini = 0.013\nsamples = 153\nvalue = [152, 1]"] ;
99 -> 107 ;
108 [label="gini = 0.0\nsamples = 120\nvalue = [120, 0]"] ;
107 -> 108 ;
109 [label="X[3] <= 103.4\ngini = 0.059\nsamples = 33\nvalue = [32, 1]"] ;
107 -> 109 ;
110 [label="gini = 0.0\nsamples = 24\nvalue = [24, 0]"] ;
109 -> 110 ;
111 [label="X[3] <= 105.635\ngini = 0.198\nsamples = 9\nvalue = [8, 1]"] ;
109 -> 111 ;
112 [label="gini = 0.0\nsamples = 1\nvalue = [0, 1]"] ;
111 -> 112 ;
113 [label="gini = 0.0\nsamples = 8\nvalue = [8, 0]"] ;
111 -> 113 ;
114 [label="X[3] <= 180.327\ngini = 0.394\nsamples = 37\nvalue = [27, 10]"] ;
98 -> 114 ;
115 [label="X[6] <= 0.847\ngini = 0.48\nsamples = 15\nvalue = [6, 9]"] ;
114 -> 115 ;
116 [label="X[11] <= 0.153\ngini = 0.18\nsamples = 10\nvalue = [1, 9]"] ;
115 -> 116 ;
117 [label="gini = 0.0\nsamples = 1\nvalue = [1, 0]"] ;
116 -> 117 ;
118 [label="gini = 0.0\nsamples = 9\nvalue = [0, 9]"] ;
116 -> 118 ;
119 [label="gini = 0.0\nsamples = 5\nvalue = [5, 0]"] ;
115 -> 119 ;
120 [label="X[3] <= 233.09\ngini = 0.087\nsamples = 22\nvalue = [21, 1]"] ;
114 -> 120 ;
121 [label="gini = 0.0\nsamples = 20\nvalue = [20, 0]"] ;
120 -> 121 ;
122 [label="X[15] <= 0.5\ngini = 0.5\nsamples = 2\nvalue = [1, 1]"] ;
120 -> 122 ;
123 [label="gini = 0.0\nsamples = 1\nvalue = [1, 0]"] ;
122 -> 123 ;
124 [label="gini = 0.0\nsamples = 1\nvalue = [0, 1]"] ;
122 -> 124 ;
125 [label="X[10] <= 0.997\ngini = 0.498\nsamples = 561\nvalue = [298, 263]"] ;
97 -> 125 ;
126 [label="gini = 0.0\nsamples = 115\nvalue = [0, 115]"] ;
125 -> 126 ;
127 [label="X[0] <= 45.972\ngini = 0.443\nsamples = 446\nvalue = [298, 148]"] ;
125 -> 127 ;
128 [label="gini = 0.0\nsamples = 22\nvalue = [0, 22]"] ;
127 -> 128 ;
129 [label="X[1] <= 0.002\ngini = 0.418\nsamples = 424\nvalue = [298, 126]"] ;
127 -> 129 ;
130 [label="X[15] <= 0.02\ngini = 0.349\nsamples = 351\nvalue = [272, 79]"] ;
129 -> 130 ;
131 [label="X[16] <= 0.335\ngini = 0.22\nsamples = 191\nvalue = [167, 24]"] ;
130 -> 131 ;
132 [label="X[4] <= 39.129\ngini = 0.069\nsamples = 111\nvalue = [107, 4]"] ;
131 -> 132 ;
133 [label="gini = 0.0\nsamples = 89\nvalue = [89, 0]"] ;
132 -> 133 ;
134 [label="X[4] <= 41.65\ngini = 0.298\nsamples = 22\nvalue = [18, 4]"] ;
132 -> 134 ;
135 [label="X[14] <= 0.291\ngini = 0.444\nsamples = 6\nvalue = [2, 4]"] ;
134 -> 135 ;
136 [label="gini = 0.0\nsamples = 2\nvalue = [2, 0]"] ;
135 -> 136 ;
137 [label="gini = 0.0\nsamples = 4\nvalue = [0, 4]"] ;
135 -> 137 ;
138 [label="gini = 0.0\nsamples = 16\nvalue = [16, 0]"] ;
134 -> 138 ;
139 [label="X[3] <= 95.874\ngini = 0.375\nsamples = 80\nvalue = [60, 20]"] ;
131 -> 139 ;
140 [label="gini = 0.0\nsamples = 32\nvalue = [32, 0]"] ;
139 -> 140 ;
141 [label="X[3] <= 105.629\ngini = 0.486\nsamples = 48\nvalue = [28, 20]"] ;
139 -> 141 ;
142 [label="X[6] <= 0.839\ngini = 0.464\nsamples = 30\nvalue = [11, 19]"] ;
141 -> 142 ;
143 [label="X[5] <= 0.017\ngini = 0.236\nsamples = 22\nvalue = [3, 19]"] ;
142 -> 143 ;
144 [label="gini = 0.0\nsamples = 2\nvalue = [2, 0]"] ;
143 -> 144 ;
145 [label="X[4] <= 41.021\ngini = 0.095\nsamples = 20\nvalue = [1, 19]"] ;
143 -> 145 ;
146 [label="gini = 0.0\nsamples = 19\nvalue = [0, 19]"] ;
145 -> 146 ;
147 [label="gini = 0.0\nsamples = 1\nvalue = [1, 0]"] ;
145 -> 147 ;
148 [label="gini = 0.0\nsamples = 8\nvalue = [8, 0]"] ;
142 -> 148 ;
149 [label="X[3] <= 166.085\ngini = 0.105\nsamples = 18\nvalue = [17, 1]"] ;
141 -> 149 ;
150 [label="gini = 0.0\nsamples = 12\nvalue = [12, 0]"] ;
149 -> 150 ;
151 [label="X[3] <= 173.575\ngini = 0.278\nsamples = 6\nvalue = [5, 1]"] ;
149 -> 151 ;
152 [label="gini = 0.0\nsamples = 1\nvalue = [0, 1]"] ;
151 -> 152 ;
153 [label="gini = 0.0\nsamples = 5\nvalue = [5, 0]"] ;
151 -> 153 ;
154 [label="X[15] <= 0.984\ngini = 0.451\nsamples = 160\nvalue = [105, 55]"] ;
130 -> 154 ;
155 [label="gini = 0.0\nsamples = 31\nvalue = [0, 31]"] ;
154 -> 155 ;
156 [label="X[3] <= 78.235\ngini = 0.303\nsamples = 129\nvalue = [105, 24]"] ;
154 -> 156 ;
157 [label="X[6] <= 0.081\ngini = 0.5\nsamples = 39\nvalue = [19, 20]"] ;
156 -> 157 ;
158 [label="gini = 0.0\nsamples = 11\nvalue = [11, 0]"] ;
157 -> 158 ;
159 [label="X[4] <= 30.85\ngini = 0.408\nsamples = 28\nvalue = [8, 20]"] ;
157 -> 159 ;
160 [label="X[0] <= 52.994\ngini = 0.227\nsamples = 23\nvalue = [3, 20]"] ;
159 -> 160 ;
161 [label="X[4] <= 28.602\ngini = 0.165\nsamples = 22\nvalue = [2, 20]"] ;
160 -> 161 ;
162 [label="X[4] <= 25.845\ngini = 0.346\nsamples = 9\nvalue = [2, 7]"] ;
161 -> 162 ;
163 [label="gini = 0.0\nsamples = 6\nvalue = [0, 6]"] ;
162 -> 163 ;
164 [label="X[0] <= 50.459\ngini = 0.444\nsamples = 3\nvalue = [2, 1]"] ;
162 -> 164 ;
165 [label="gini = 0.0\nsamples = 2\nvalue = [2, 0]"] ;
164 -> 165 ;
166 [label="gini = 0.0\nsamples = 1\nvalue = [0, 1]"] ;
164 -> 166 ;
167 [label="gini = 0.0\nsamples = 13\nvalue = [0, 13]"] ;
161 -> 167 ;
168 [label="gini = 0.0\nsamples = 1\nvalue = [1, 0]"] ;
160 -> 168 ;
169 [label="gini = 0.0\nsamples = 5\nvalue = [5, 0]"] ;
159 -> 169 ;
170 [label="X[4] <= 50.057\ngini = 0.085\nsamples = 90\nvalue = [86, 4]"] ;
156 -> 170 ;
171 [label="X[4] <= 21.775\ngini = 0.045\nsamples = 87\nvalue = [85, 2]"] ;
170 -> 171 ;
172 [label="X[3] <= 151.735\ngini = 0.278\nsamples = 6\nvalue = [5, 1]"] ;
171 -> 172 ;
173 [label="gini = 0.0\nsamples = 4\nvalue = [4, 0]"] ;
172 -> 173 ;
174 [label="X[0] <= 52.0\ngini = 0.5\nsamples = 2\nvalue = [1, 1]"] ;
172 -> 174 ;
175 [label="gini = 0.0\nsamples = 1\nvalue = [0, 1]"] ;
174 -> 175 ;
176 [label="gini = 0.0\nsamples = 1\nvalue = [1, 0]"] ;
174 -> 176 ;
177 [label="X[0] <= 51.5\ngini = 0.024\nsamples = 81\nvalue = [80, 1]"] ;
171 -> 177 ;
178 [label="gini = 0.0\nsamples = 60\nvalue = [60, 0]"] ;
177 -> 178 ;
179 [label="X[4] <= 27.25\ngini = 0.091\nsamples = 21\nvalue = [20, 1]"] ;
177 -> 179 ;
180 [label="X[7] <= 0.5\ngini = 0.375\nsamples = 4\nvalue = [3, 1]"] ;
179 -> 180 ;
181 [label="gini = 0.0\nsamples = 1\nvalue = [0, 1]"] ;
180 -> 181 ;
182 [label="gini = 0.0\nsamples = 3\nvalue = [3, 0]"] ;
180 -> 182 ;
183 [label="gini = 0.0\nsamples = 17\nvalue = [17, 0]"] ;
179 -> 183 ;
184 [label="X[6] <= 0.609\ngini = 0.444\nsamples = 3\nvalue = [1, 2]"] ;
170 -> 184 ;
185 [label="gini = 0.0\nsamples = 2\nvalue = [0, 2]"] ;
184 -> 185 ;
186 [label="gini = 0.0\nsamples = 1\nvalue = [1, 0]"] ;
184 -> 186 ;
187 [label="X[1] <= 0.991\ngini = 0.459\nsamples = 73\nvalue = [26, 47]"] ;
129 -> 187 ;
188 [label="gini = 0.0\nsamples = 42\nvalue = [0, 42]"] ;
187 -> 188 ;
189 [label="X[3] <= 73.45\ngini = 0.271\nsamples = 31\nvalue = [26, 5]"] ;
187 -> 189 ;
190 [label="X[14] <= 0.329\ngini = 0.5\nsamples = 6\nvalue = [3, 3]"] ;
189 -> 190 ;
191 [label="X[3] <= 63.367\ngini = 0.375\nsamples = 4\nvalue = [3, 1]"] ;
190 -> 191 ;
192 [label="gini = 0.0\nsamples = 1\nvalue = [0, 1]"] ;
191 -> 192 ;
193 [label="gini = 0.0\nsamples = 3\nvalue = [3, 0]"] ;
191 -> 193 ;
194 [label="gini = 0.0\nsamples = 2\nvalue = [0, 2]"] ;
190 -> 194 ;
195 [label="X[4] <= 39.75\ngini = 0.147\nsamples = 25\nvalue = [23, 2]"] ;
189 -> 195 ;
196 [label="X[4] <= 28.45\ngini = 0.087\nsamples = 22\nvalue = [21, 1]"] ;
195 -> 196 ;
197 [label="X[4] <= 28.2\ngini = 0.278\nsamples = 6\nvalue = [5, 1]"] ;
196 -> 197 ;
198 [label="gini = 0.0\nsamples = 5\nvalue = [5, 0]"] ;
197 -> 198 ;
199 [label="gini = 0.0\nsamples = 1\nvalue = [0, 1]"] ;
197 -> 199 ;
200 [label="gini = 0.0\nsamples = 16\nvalue = [16, 0]"] ;
196 -> 200 ;
201 [label="X[4] <= 43.4\ngini = 0.444\nsamples = 3\nvalue = [2, 1]"] ;
195 -> 201 ;
202 [label="gini = 0.0\nsamples = 1\nvalue = [0, 1]"] ;
201 -> 202 ;
203 [label="gini = 0.0\nsamples = 2\nvalue = [2, 0]"] ;
201 -> 203 ;
204 [label="X[8] <= 1.0\ngini = 0.396\nsamples = 4797\nvalue = [1303, 3494]"] ;
0 -> 204 [labeldistance=2.5, labelangle=-45, headlabel="False"] ;
205 [label="X[11] <= 0.999\ngini = 0.367\nsamples = 4523\nvalue = [1093, 3430]"] ;
204 -> 205 ;
206 [label="X[10] <= 1.0\ngini = 0.307\nsamples = 3811\nvalue = [722, 3089]"] ;
205 -> 206 ;
207 [label="gini = 0.0\nsamples = 1700\nvalue = [0, 1700]"] ;
206 -> 207 ;
208 [label="X[2] <= 0.001\ngini = 0.45\nsamples = 2111\nvalue = [722, 1389]"] ;
206 -> 208 ;
209 [label="X[0] <= 71.024\ngini = 0.492\nsamples = 1459\nvalue = [638, 821]"] ;
208 -> 209 ;
210 [label="X[15] <= 0.998\ngini = 0.492\nsamples = 883\nvalue = [496, 387]"] ;
209 -> 210 ;
211 [label="X[15] <= 0.008\ngini = 0.498\nsamples = 673\nvalue = [316, 357]"] ;
210 -> 211 ;
212 [label="X[0] <= 59.929\ngini = 0.488\nsamples = 547\nvalue = [316, 231]"] ;
211 -> 212 ;
213 [label="X[0] <= 56.046\ngini = 0.494\nsamples = 288\nvalue = [128, 160]"] ;
212 -> 213 ;
214 [label="X[0] <= 53.944\ngini = 0.373\nsamples = 101\nvalue = [76, 25]"] ;
213 -> 214 ;
215 [label="gini = 0.0\nsamples = 8\nvalue = [0, 8]"] ;
214 -> 215 ;
216 [label="X[1] <= 0.157\ngini = 0.299\nsamples = 93\nvalue = [76, 17]"] ;
214 -> 216 ;
217 [label="X[16] <= 0.437\ngini = 0.237\nsamples = 80\nvalue = [69, 11]"] ;
216 -> 217 ;
218 [label="X[4] <= 36.766\ngini = 0.041\nsamples = 48\nvalue = [47, 1]"] ;
217 -> 218 ;
219 [label="gini = 0.0\nsamples = 38\nvalue = [38, 0]"] ;
218 -> 219 ;
220 [label="X[4] <= 37.566\ngini = 0.18\nsamples = 10\nvalue = [9, 1]"] ;
218 -> 220 ;
221 [label="gini = 0.0\nsamples = 1\nvalue = [0, 1]"] ;
220 -> 221 ;
222 [label="gini = 0.0\nsamples = 9\nvalue = [9, 0]"] ;
220 -> 222 ;
223 [label="X[4] <= 29.482\ngini = 0.43\nsamples = 32\nvalue = [22, 10]"] ;
217 -> 223 ;
224 [label="X[0] <= 54.913\ngini = 0.484\nsamples = 17\nvalue = [7, 10]"] ;
223 -> 224 ;
225 [label="X[7] <= 0.986\ngini = 0.278\nsamples = 12\nvalue = [2, 10]"] ;
224 -> 225 ;
226 [label="gini = 0.0\nsamples = 9\nvalue = [0, 9]"] ;
225 -> 226 ;
227 [label="X[4] <= 28.35\ngini = 0.444\nsamples = 3\nvalue = [2, 1]"] ;
225 -> 227 ;
228 [label="gini = 0.0\nsamples = 1\nvalue = [0, 1]"] ;
227 -> 228 ;
229 [label="gini = 0.0\nsamples = 2\nvalue = [2, 0]"] ;
227 -> 229 ;
230 [label="gini = 0.0\nsamples = 5\nvalue = [5, 0]"] ;
224 -> 230 ;
231 [label="gini = 0.0\nsamples = 15\nvalue = [15, 0]"] ;
223 -> 231 ;
232 [label="X[1] <= 0.848\ngini = 0.497\nsamples = 13\nvalue = [7, 6]"] ;
216 -> 232 ;
233 [label="gini = 0.0\nsamples = 6\nvalue = [0, 6]"] ;
232 -> 233 ;
234 [label="gini = 0.0\nsamples = 7\nvalue = [7, 0]"] ;
232 -> 234 ;
235 [label="X[3] <= 82.19\ngini = 0.401\nsamples = 187\nvalue = [52, 135]"] ;
213 -> 235 ;
236 [label="X[13] <= 0.015\ngini = 0.375\nsamples = 28\nvalue = [21, 7]"] ;
235 -> 236 ;
237 [label="X[3] <= 60.105\ngini = 0.105\nsamples = 18\nvalue = [17, 1]"] ;
236 -> 237 ;
238 [label="X[3] <= 58.665\ngini = 0.375\nsamples = 4\nvalue = [3, 1]"] ;
237 -> 238 ;
239 [label="gini = 0.0\nsamples = 3\nvalue = [3, 0]"] ;
238 -> 239 ;
240 [label="gini = 0.0\nsamples = 1\nvalue = [0, 1]"] ;
238 -> 240 ;
241 [label="gini = 0.0\nsamples = 14\nvalue = [14, 0]"] ;
237 -> 241 ;
242 [label="X[14] <= 0.009\ngini = 0.48\nsamples = 10\nvalue = [4, 6]"] ;
236 -> 242 ;
243 [label="X[4] <= 27.7\ngini = 0.32\nsamples = 5\nvalue = [4, 1]"] ;
242 -> 243 ;
244 [label="gini = 0.0\nsamples = 4\nvalue = [4, 0]"] ;
243 -> 244 ;
245 [label="gini = 0.0\nsamples = 1\nvalue = [0, 1]"] ;
243 -> 245 ;
246 [label="gini = 0.0\nsamples = 5\nvalue = [0, 5]"] ;
242 -> 246 ;
247 [label="X[4] <= 30.121\ngini = 0.314\nsamples = 159\nvalue = [31, 128]"] ;
235 -> 247 ;
248 [label="X[16] <= 0.343\ngini = 0.5\nsamples = 33\nvalue = [17, 16]"] ;
247 -> 248 ;
249 [label="X[0] <= 59.185\ngini = 0.231\nsamples = 15\nvalue = [13, 2]"] ;
248 -> 249 ;
250 [label="X[4] <= 29.9\ngini = 0.133\nsamples = 14\nvalue = [13, 1]"] ;
249 -> 250 ;
251 [label="gini = 0.0\nsamples = 12\nvalue = [12, 0]"] ;
250 -> 251 ;
252 [label="X[14] <= 0.5\ngini = 0.5\nsamples = 2\nvalue = [1, 1]"] ;
250 -> 252 ;
253 [label="gini = 0.0\nsamples = 1\nvalue = [1, 0]"] ;
252 -> 253 ;
254 [label="gini = 0.0\nsamples = 1\nvalue = [0, 1]"] ;
252 -> 254 ;
255 [label="gini = 0.0\nsamples = 1\nvalue = [0, 1]"] ;
249 -> 255 ;
256 [label="X[7] <= 0.964\ngini = 0.346\nsamples = 18\nvalue = [4, 14]"] ;
248 -> 256 ;
257 [label="gini = 0.0\nsamples = 14\nvalue = [0, 14]"] ;
256 -> 257 ;
258 [label="gini = 0.0\nsamples = 4\nvalue = [4, 0]"] ;
256 -> 258 ;
259 [label="X[1] <= 1.0\ngini = 0.198\nsamples = 126\nvalue = [14, 112]"] ;
247 -> 259 ;
260 [label="X[3] <= 224.0\ngini = 0.152\nsamples = 121\nvalue = [10, 111]"] ;
259 -> 260 ;
261 [label="X[0] <= 57.998\ngini = 0.125\nsamples = 119\nvalue = [8, 111]"] ;
260 -> 261 ;
262 [label="gini = 0.0\nsamples = 69\nvalue = [0, 69]"] ;
261 -> 262 ;
263 [label="X[14] <= 0.019\ngini = 0.269\nsamples = 50\nvalue = [8, 42]"] ;
261 -> 263 ;
264 [label="X[5] <= 0.768\ngini = 0.5\nsamples = 14\nvalue = [7, 7]"] ;
263 -> 264 ;
265 [label="gini = 0.0\nsamples = 4\nvalue = [0, 4]"] ;
264 -> 265 ;
266 [label="X[4] <= 31.5\ngini = 0.42\nsamples = 10\nvalue = [7, 3]"] ;
264 -> 266 ;
267 [label="X[4] <= 30.65\ngini = 0.444\nsamples = 3\nvalue = [1, 2]"] ;
266 -> 267 ;
268 [label="gini = 0.0\nsamples = 1\nvalue = [1, 0]"] ;
267 -> 268 ;
269 [label="gini = 0.0\nsamples = 2\nvalue = [0, 2]"] ;
267 -> 269 ;
270 [label="X[4] <= 43.75\ngini = 0.245\nsamples = 7\nvalue = [6, 1]"] ;
266 -> 270 ;
271 [label="gini = 0.0\nsamples = 6\nvalue = [6, 0]"] ;
270 -> 271 ;
272 [label="gini = 0.0\nsamples = 1\nvalue = [0, 1]"] ;
270 -> 272 ;
273 [label="X[0] <= 58.01\ngini = 0.054\nsamples = 36\nvalue = [1, 35]"] ;
263 -> 273 ;
274 [label="X[4] <= 37.2\ngini = 0.5\nsamples = 2\nvalue = [1, 1]"] ;
273 -> 274 ;
275 [label="gini = 0.0\nsamples = 1\nvalue = [1, 0]"] ;
274 -> 275 ;
276 [label="gini = 0.0\nsamples = 1\nvalue = [0, 1]"] ;
274 -> 276 ;
277 [label="gini = 0.0\nsamples = 34\nvalue = [0, 34]"] ;
273 -> 277 ;
278 [label="gini = 0.0\nsamples = 2\nvalue = [2, 0]"] ;
260 -> 278 ;
279 [label="X[3] <= 170.81\ngini = 0.32\nsamples = 5\nvalue = [4, 1]"] ;
259 -> 279 ;
280 [label="gini = 0.0\nsamples = 4\nvalue = [4, 0]"] ;
279 -> 280 ;
281 [label="gini = 0.0\nsamples = 1\nvalue = [0, 1]"] ;
279 -> 281 ;
282 [label="X[14] <= 0.079\ngini = 0.398\nsamples = 259\nvalue = [188, 71]"] ;
212 -> 282 ;
283 [label="X[0] <= 70.01\ngini = 0.148\nsamples = 124\nvalue = [114, 10]"] ;
282 -> 283 ;
284 [label="X[0] <= 67.5\ngini = 0.084\nsamples = 114\nvalue = [109, 5]"] ;
283 -> 284 ;
285 [label="X[0] <= 60.5\ngini = 0.022\nsamples = 91\nvalue = [90, 1]"] ;
284 -> 285 ;
286 [label="X[4] <= 27.05\ngini = 0.095\nsamples = 20\nvalue = [19, 1]"] ;
285 -> 286 ;
287 [label="X[4] <= 26.0\ngini = 0.32\nsamples = 5\nvalue = [4, 1]"] ;
286 -> 287 ;
288 [label="gini = 0.0\nsamples = 4\nvalue = [4, 0]"] ;
287 -> 288 ;
289 [label="gini = 0.0\nsamples = 1\nvalue = [0, 1]"] ;
287 -> 289 ;
290 [label="gini = 0.0\nsamples = 15\nvalue = [15, 0]"] ;
286 -> 290 ;
291 [label="gini = 0.0\nsamples = 71\nvalue = [71, 0]"] ;
285 -> 291 ;
292 [label="X[6] <= 0.5\ngini = 0.287\nsamples = 23\nvalue = [19, 4]"] ;
284 -> 292 ;
293 [label="X[4] <= 27.436\ngini = 0.463\nsamples = 11\nvalue = [7, 4]"] ;
292 -> 293 ;
294 [label="gini = 0.0\nsamples = 5\nvalue = [5, 0]"] ;
293 -> 294 ;
295 [label="X[4] <= 29.6\ngini = 0.444\nsamples = 6\nvalue = [2, 4]"] ;
293 -> 295 ;
296 [label="gini = 0.0\nsamples = 3\nvalue = [0, 3]"] ;
295 -> 296 ;
297 [label="X[3] <= 180.43\ngini = 0.444\nsamples = 3\nvalue = [2, 1]"] ;
295 -> 297 ;
298 [label="gini = 0.0\nsamples = 2\nvalue = [2, 0]"] ;
297 -> 298 ;
299 [label="gini = 0.0\nsamples = 1\nvalue = [0, 1]"] ;
297 -> 299 ;
300 [label="gini = 0.0\nsamples = 12\nvalue = [12, 0]"] ;
292 -> 300 ;
301 [label="X[3] <= 98.563\ngini = 0.5\nsamples = 10\nvalue = [5, 5]"] ;
283 -> 301 ;
302 [label="gini = 0.0\nsamples = 5\nvalue = [0, 5]"] ;
301 -> 302 ;
303 [label="gini = 0.0\nsamples = 5\nvalue = [5, 0]"] ;
301 -> 303 ;
304 [label="X[14] <= 0.984\ngini = 0.495\nsamples = 135\nvalue = [74, 61]"] ;
282 -> 304 ;
305 [label="gini = 0.0\nsamples = 29\nvalue = [0, 29]"] ;
304 -> 305 ;
306 [label="X[3] <= 132.145\ngini = 0.422\nsamples = 106\nvalue = [74, 32]"] ;
304 -> 306 ;
307 [label="X[4] <= 22.565\ngini = 0.317\nsamples = 76\nvalue = [61, 15]"] ;
306 -> 307 ;
308 [label="X[4] <= 20.5\ngini = 0.397\nsamples = 11\nvalue = [3, 8]"] ;
307 -> 308 ;
309 [label="gini = 0.0\nsamples = 2\nvalue = [2, 0]"] ;
308 -> 309 ;
310 [label="X[3] <= 74.823\ngini = 0.198\nsamples = 9\nvalue = [1, 8]"] ;
308 -> 310 ;
311 [label="gini = 0.0\nsamples = 1\nvalue = [1, 0]"] ;
310 -> 311 ;
312 [label="gini = 0.0\nsamples = 8\nvalue = [0, 8]"] ;
310 -> 312 ;
313 [label="X[3] <= 99.95\ngini = 0.192\nsamples = 65\nvalue = [58, 7]"] ;
307 -> 313 ;
314 [label="X[4] <= 24.579\ngini = 0.043\nsamples = 46\nvalue = [45, 1]"] ;
313 -> 314 ;
315 [label="X[0] <= 65.39\ngini = 0.444\nsamples = 3\nvalue = [2, 1]"] ;
314 -> 315 ;
316 [label="gini = 0.0\nsamples = 1\nvalue = [0, 1]"] ;
315 -> 316 ;
317 [label="gini = 0.0\nsamples = 2\nvalue = [2, 0]"] ;
315 -> 317 ;
318 [label="gini = 0.0\nsamples = 43\nvalue = [43, 0]"] ;
314 -> 318 ;
319 [label="X[3] <= 102.363\ngini = 0.432\nsamples = 19\nvalue = [13, 6]"] ;
313 -> 319 ;
320 [label="gini = 0.0\nsamples = 4\nvalue = [0, 4]"] ;
319 -> 320 ;
321 [label="X[0] <= 70.495\ngini = 0.231\nsamples = 15\nvalue = [13, 2]"] ;
319 -> 321 ;
322 [label="gini = 0.0\nsamples = 12\nvalue = [12, 0]"] ;
321 -> 322 ;
323 [label="X[1] <= 0.5\ngini = 0.444\nsamples = 3\nvalue = [1, 2]"] ;
321 -> 323 ;
324 [label="gini = 0.0\nsamples = 2\nvalue = [0, 2]"] ;
323 -> 324 ;
325 [label="gini = 0.0\nsamples = 1\nvalue = [1, 0]"] ;
323 -> 325 ;
326 [label="X[3] <= 152.38\ngini = 0.491\nsamples = 30\nvalue = [13, 17]"] ;
306 -> 326 ;
327 [label="X[4] <= 24.9\ngini = 0.153\nsamples = 12\nvalue = [1, 11]"] ;
326 -> 327 ;
328 [label="gini = 0.0\nsamples = 1\nvalue = [1, 0]"] ;
327 -> 328 ;
329 [label="gini = 0.0\nsamples = 11\nvalue = [0, 11]"] ;
327 -> 329 ;
330 [label="X[4] <= 37.266\ngini = 0.444\nsamples = 18\nvalue = [12, 6]"] ;
326 -> 330 ;
331 [label="X[3] <= 184.76\ngini = 0.153\nsamples = 12\nvalue = [11, 1]"] ;
330 -> 331 ;
332 [label="X[3] <= 166.36\ngini = 0.5\nsamples = 2\nvalue = [1, 1]"] ;
331 -> 332 ;
333 [label="gini = 0.0\nsamples = 1\nvalue = [1, 0]"] ;
332 -> 333 ;
334 [label="gini = 0.0\nsamples = 1\nvalue = [0, 1]"] ;
332 -> 334 ;
335 [label="gini = 0.0\nsamples = 10\nvalue = [10, 0]"] ;
331 -> 335 ;
336 [label="X[1] <= 0.877\ngini = 0.278\nsamples = 6\nvalue = [1, 5]"] ;
330 -> 336 ;
337 [label="gini = 0.0\nsamples = 4\nvalue = [0, 4]"] ;
336 -> 337 ;
338 [label="X[3] <= 235.47\ngini = 0.5\nsamples = 2\nvalue = [1, 1]"] ;
336 -> 338 ;
339 [label="gini = 0.0\nsamples = 1\nvalue = [1, 0]"] ;
338 -> 339 ;
340 [label="gini = 0.0\nsamples = 1\nvalue = [0, 1]"] ;
338 -> 340 ;
341 [label="gini = 0.0\nsamples = 126\nvalue = [0, 126]"] ;
211 -> 341 ;
342 [label="X[3] <= 221.025\ngini = 0.245\nsamples = 210\nvalue = [180, 30]"] ;
210 -> 342 ;
343 [label="X[5] <= 0.727\ngini = 0.114\nsamples = 181\nvalue = [170, 11]"] ;
342 -> 343 ;
344 [label="X[3] <= 161.53\ngini = 0.48\nsamples = 20\nvalue = [12, 8]"] ;
343 -> 344 ;
345 [label="X[4] <= 37.45\ngini = 0.245\nsamples = 14\nvalue = [12, 2]"] ;
344 -> 345 ;
346 [label="X[4] <= 25.4\ngini = 0.142\nsamples = 13\nvalue = [12, 1]"] ;
345 -> 346 ;
347 [label="X[7] <= 0.5\ngini = 0.5\nsamples = 2\nvalue = [1, 1]"] ;
346 -> 347 ;
348 [label="gini = 0.0\nsamples = 1\nvalue = [1, 0]"] ;
347 -> 348 ;
349 [label="gini = 0.0\nsamples = 1\nvalue = [0, 1]"] ;
347 -> 349 ;
350 [label="gini = 0.0\nsamples = 11\nvalue = [11, 0]"] ;
346 -> 350 ;
351 [label="gini = 0.0\nsamples = 1\nvalue = [0, 1]"] ;
345 -> 351 ;
352 [label="gini = 0.0\nsamples = 6\nvalue = [0, 6]"] ;
344 -> 352 ;
353 [label="X[0] <= 53.799\ngini = 0.037\nsamples = 161\nvalue = [158, 3]"] ;
343 -> 353 ;
354 [label="gini = 0.0\nsamples = 2\nvalue = [0, 2]"] ;
353 -> 354 ;
355 [label="X[0] <= 54.5\ngini = 0.012\nsamples = 159\nvalue = [158, 1]"] ;
353 -> 355 ;
356 [label="X[3] <= 72.64\ngini = 0.117\nsamples = 16\nvalue = [15, 1]"] ;
355 -> 356 ;
357 [label="X[6] <= 0.5\ngini = 0.5\nsamples = 2\nvalue = [1, 1]"] ;
356 -> 357 ;
358 [label="gini = 0.0\nsamples = 1\nvalue = [1, 0]"] ;
357 -> 358 ;
359 [label="gini = 0.0\nsamples = 1\nvalue = [0, 1]"] ;
357 -> 359 ;
360 [label="gini = 0.0\nsamples = 14\nvalue = [14, 0]"] ;
356 -> 360 ;
361 [label="gini = 0.0\nsamples = 143\nvalue = [143, 0]"] ;
355 -> 361 ;
362 [label="X[0] <= 61.365\ngini = 0.452\nsamples = 29\nvalue = [10, 19]"] ;
342 -> 362 ;
363 [label="X[3] <= 242.58\ngini = 0.219\nsamples = 8\nvalue = [7, 1]"] ;
362 -> 363 ;
364 [label="gini = 0.0\nsamples = 7\nvalue = [7, 0]"] ;
363 -> 364 ;
365 [label="gini = 0.0\nsamples = 1\nvalue = [0, 1]"] ;
363 -> 365 ;
366 [label="X[7] <= 0.019\ngini = 0.245\nsamples = 21\nvalue = [3, 18]"] ;
362 -> 366 ;
367 [label="X[3] <= 236.933\ngini = 0.49\nsamples = 7\nvalue = [3, 4]"] ;
366 -> 367 ;
368 [label="X[4] <= 36.4\ngini = 0.375\nsamples = 4\nvalue = [3, 1]"] ;
367 -> 368 ;
369 [label="gini = 0.0\nsamples = 2\nvalue = [2, 0]"] ;
368 -> 369 ;
370 [label="X[3] <= 233.765\ngini = 0.5\nsamples = 2\nvalue = [1, 1]"] ;
368 -> 370 ;
371 [label="gini = 0.0\nsamples = 1\nvalue = [1, 0]"] ;
370 -> 371 ;
372 [label="gini = 0.0\nsamples = 1\nvalue = [0, 1]"] ;
370 -> 372 ;
373 [label="gini = 0.0\nsamples = 3\nvalue = [0, 3]"] ;
367 -> 373 ;
374 [label="gini = 0.0\nsamples = 14\nvalue = [0, 14]"] ;
366 -> 374 ;
375 [label="X[14] <= 0.989\ngini = 0.372\nsamples = 576\nvalue = [142, 434]"] ;
209 -> 375 ;
376 [label="X[14] <= 0.01\ngini = 0.318\nsamples = 509\nvalue = [101, 408]"] ;
375 -> 376 ;
377 [label="X[7] <= 0.007\ngini = 0.414\nsamples = 345\nvalue = [101, 244]"] ;
376 -> 377 ;
378 [label="X[15] <= 0.0\ngini = 0.491\nsamples = 127\nvalue = [55, 72]"] ;
377 -> 378 ;
379 [label="X[3] <= 152.495\ngini = 0.312\nsamples = 31\nvalue = [25, 6]"] ;
378 -> 379 ;
380 [label="X[0] <= 72.5\ngini = 0.204\nsamples = 26\nvalue = [23, 3]"] ;
379 -> 380 ;
381 [label="gini = 0.0\nsamples = 2\nvalue = [0, 2]"] ;
380 -> 381 ;
382 [label="X[4] <= 21.2\ngini = 0.08\nsamples = 24\nvalue = [23, 1]"] ;
380 -> 382 ;
383 [label="X[4] <= 19.5\ngini = 0.444\nsamples = 3\nvalue = [2, 1]"] ;
382 -> 383 ;
384 [label="gini = 0.0\nsamples = 2\nvalue = [2, 0]"] ;
383 -> 384 ;
385 [label="gini = 0.0\nsamples = 1\nvalue = [0, 1]"] ;
383 -> 385 ;
386 [label="gini = 0.0\nsamples = 21\nvalue = [21, 0]"] ;
382 -> 386 ;
387 [label="X[1] <= 0.5\ngini = 0.48\nsamples = 5\nvalue = [2, 3]"] ;
379 -> 387 ;
388 [label="gini = 0.0\nsamples = 3\nvalue = [0, 3]"] ;
387 -> 388 ;
389 [label="gini = 0.0\nsamples = 2\nvalue = [2, 0]"] ;
387 -> 389 ;
390 [label="X[3] <= 72.305\ngini = 0.43\nsamples = 96\nvalue = [30, 66]"] ;
378 -> 390 ;
391 [label="X[4] <= 32.9\ngini = 0.219\nsamples = 8\nvalue = [7, 1]"] ;
390 -> 391 ;
392 [label="gini = 0.0\nsamples = 7\nvalue = [7, 0]"] ;
391 -> 392 ;
393 [label="gini = 0.0\nsamples = 1\nvalue = [0, 1]"] ;
391 -> 393 ;
394 [label="X[3] <= 79.519\ngini = 0.386\nsamples = 88\nvalue = [23, 65]"] ;
390 -> 394 ;
395 [label="gini = 0.0\nsamples = 29\nvalue = [0, 29]"] ;
394 -> 395 ;
396 [label="X[4] <= 22.11\ngini = 0.476\nsamples = 59\nvalue = [23, 36]"] ;
394 -> 396 ;
397 [label="gini = 0.0\nsamples = 6\nvalue = [6, 0]"] ;
396 -> 397 ;
398 [label="X[4] <= 24.852\ngini = 0.436\nsamples = 53\nvalue = [17, 36]"] ;
396 -> 398 ;
399 [label="X[4] <= 22.526\ngini = 0.188\nsamples = 19\nvalue = [2, 17]"] ;
398 -> 399 ;
400 [label="X[13] <= 0.168\ngini = 0.48\nsamples = 5\nvalue = [2, 3]"] ;
399 -> 400 ;
401 [label="gini = 0.0\nsamples = 2\nvalue = [2, 0]"] ;
400 -> 401 ;
402 [label="gini = 0.0\nsamples = 3\nvalue = [0, 3]"] ;
400 -> 402 ;
403 [label="gini = 0.0\nsamples = 14\nvalue = [0, 14]"] ;
399 -> 403 ;
404 [label="X[3] <= 172.349\ngini = 0.493\nsamples = 34\nvalue = [15, 19]"] ;
398 -> 404 ;
405 [label="X[3] <= 81.105\ngini = 0.278\nsamples = 12\nvalue = [10, 2]"] ;
404 -> 405 ;
406 [label="X[0] <= 79.893\ngini = 0.5\nsamples = 4\nvalue = [2, 2]"] ;
405 -> 406 ;
407 [label="gini = 0.0\nsamples = 2\nvalue = [2, 0]"] ;
406 -> 407 ;
408 [label="gini = 0.0\nsamples = 2\nvalue = [0, 2]"] ;
406 -> 408 ;
409 [label="gini = 0.0\nsamples = 8\nvalue = [8, 0]"] ;
405 -> 409 ;
410 [label="X[4] <= 31.324\ngini = 0.351\nsamples = 22\nvalue = [5, 17]"] ;
404 -> 410 ;
411 [label="X[0] <= 79.696\ngini = 0.49\nsamples = 7\nvalue = [4, 3]"] ;
410 -> 411 ;
412 [label="gini = 0.0\nsamples = 4\nvalue = [4, 0]"] ;
411 -> 412 ;
413 [label="gini = 0.0\nsamples = 3\nvalue = [0, 3]"] ;
411 -> 413 ;
414 [label="X[0] <= 80.95\ngini = 0.124\nsamples = 15\nvalue = [1, 14]"] ;
410 -> 414 ;
415 [label="gini = 0.0\nsamples = 14\nvalue = [0, 14]"] ;
414 -> 415 ;
416 [label="gini = 0.0\nsamples = 1\nvalue = [1, 0]"] ;
414 -> 416 ;
417 [label="X[6] <= 0.984\ngini = 0.333\nsamples = 218\nvalue = [46, 172]"] ;
377 -> 417 ;
418 [label="gini = 0.0\nsamples = 99\nvalue = [0, 99]"] ;
417 -> 418 ;
419 [label="X[15] <= 0.977\ngini = 0.474\nsamples = 119\nvalue = [46, 73]"] ;
417 -> 419 ;
420 [label="X[13] <= 0.99\ngini = 0.39\nsamples = 79\nvalue = [21, 58]"] ;
419 -> 420 ;
421 [label="X[16] <= 0.997\ngini = 0.14\nsamples = 53\nvalue = [4, 49]"] ;
420 -> 421 ;
422 [label="gini = 0.0\nsamples = 46\nvalue = [0, 46]"] ;
421 -> 422 ;
423 [label="X[0] <= 79.5\ngini = 0.49\nsamples = 7\nvalue = [4, 3]"] ;
421 -> 423 ;
424 [label="X[3] <= 72.2\ngini = 0.375\nsamples = 4\nvalue = [1, 3]"] ;
423 -> 424 ;
425 [label="gini = 0.0\nsamples = 1\nvalue = [1, 0]"] ;
424 -> 425 ;
426 [label="gini = 0.0\nsamples = 3\nvalue = [0, 3]"] ;
424 -> 426 ;
427 [label="gini = 0.0\nsamples = 3\nvalue = [3, 0]"] ;
423 -> 427 ;
428 [label="X[4] <= 26.2\ngini = 0.453\nsamples = 26\nvalue = [17, 9]"] ;
420 -> 428 ;
429 [label="X[1] <= 0.5\ngini = 0.49\nsamples = 14\nvalue = [6, 8]"] ;
428 -> 429 ;
430 [label="X[4] <= 21.825\ngini = 0.444\nsamples = 12\nvalue = [4, 8]"] ;
429 -> 430 ;
431 [label="gini = 0.0\nsamples = 4\nvalue = [0, 4]"] ;
430 -> 431 ;
432 [label="X[4] <= 23.8\ngini = 0.5\nsamples = 8\nvalue = [4, 4]"] ;
430 -> 432 ;
433 [label="gini = 0.0\nsamples = 2\nvalue = [2, 0]"] ;
432 -> 433 ;
434 [label="X[5] <= 0.5\ngini = 0.444\nsamples = 6\nvalue = [2, 4]"] ;
432 -> 434 ;
435 [label="gini = 0.0\nsamples = 1\nvalue = [1, 0]"] ;
434 -> 435 ;
436 [label="X[3] <= 220.58\ngini = 0.32\nsamples = 5\nvalue = [1, 4]"] ;
434 -> 436 ;
437 [label="gini = 0.0\nsamples = 4\nvalue = [0, 4]"] ;
436 -> 437 ;
438 [label="gini = 0.0\nsamples = 1\nvalue = [1, 0]"] ;
436 -> 438 ;
439 [label="gini = 0.0\nsamples = 2\nvalue = [2, 0]"] ;
429 -> 439 ;
440 [label="X[0] <= 75.5\ngini = 0.153\nsamples = 12\nvalue = [11, 1]"] ;
428 -> 440 ;
441 [label="X[0] <= 74.5\ngini = 0.5\nsamples = 2\nvalue = [1, 1]"] ;
440 -> 441 ;
442 [label="gini = 0.0\nsamples = 1\nvalue = [1, 0]"] ;
441 -> 442 ;
443 [label="gini = 0.0\nsamples = 1\nvalue = [0, 1]"] ;
441 -> 443 ;
444 [label="gini = 0.0\nsamples = 10\nvalue = [10, 0]"] ;
440 -> 444 ;
445 [label="X[3] <= 74.86\ngini = 0.469\nsamples = 40\nvalue = [25, 15]"] ;
419 -> 445 ;
446 [label="X[3] <= 61.98\ngini = 0.153\nsamples = 12\nvalue = [1, 11]"] ;
445 -> 446 ;
447 [label="gini = 0.0\nsamples = 1\nvalue = [1, 0]"] ;
446 -> 447 ;
448 [label="gini = 0.0\nsamples = 11\nvalue = [0, 11]"] ;
446 -> 448 ;
449 [label="X[5] <= 0.5\ngini = 0.245\nsamples = 28\nvalue = [24, 4]"] ;
445 -> 449 ;
450 [label="gini = 0.0\nsamples = 2\nvalue = [0, 2]"] ;
449 -> 450 ;
451 [label="X[3] <= 220.125\ngini = 0.142\nsamples = 26\nvalue = [24, 2]"] ;
449 -> 451 ;
452 [label="gini = 0.0\nsamples = 22\nvalue = [22, 0]"] ;
451 -> 452 ;
453 [label="X[1] <= 0.5\ngini = 0.5\nsamples = 4\nvalue = [2, 2]"] ;
451 -> 453 ;
454 [label="gini = 0.0\nsamples = 2\nvalue = [2, 0]"] ;
453 -> 454 ;
455 [label="gini = 0.0\nsamples = 2\nvalue = [0, 2]"] ;
453 -> 455 ;
456 [label="gini = 0.0\nsamples = 164\nvalue = [0, 164]"] ;
376 -> 456 ;
457 [label="X[3] <= 109.785\ngini = 0.475\nsamples = 67\nvalue = [41, 26]"] ;
375 -> 457 ;
458 [label="X[0] <= 71.921\ngini = 0.312\nsamples = 31\nvalue = [25, 6]"] ;
457 -> 458 ;
459 [label="gini = 0.0\nsamples = 2\nvalue = [0, 2]"] ;
458 -> 459 ;
460 [label="X[4] <= 23.95\ngini = 0.238\nsamples = 29\nvalue = [25, 4]"] ;
458 -> 460 ;
461 [label="X[0] <= 78.5\ngini = 0.48\nsamples = 5\nvalue = [3, 2]"] ;
460 -> 461 ;
462 [label="gini = 0.0\nsamples = 2\nvalue = [0, 2]"] ;
461 -> 462 ;
463 [label="gini = 0.0\nsamples = 3\nvalue = [3, 0]"] ;
461 -> 463 ;
464 [label="X[0] <= 81.5\ngini = 0.153\nsamples = 24\nvalue = [22, 2]"] ;
460 -> 464 ;
465 [label="X[1] <= 0.5\ngini = 0.087\nsamples = 22\nvalue = [21, 1]"] ;
464 -> 465 ;
466 [label="gini = 0.0\nsamples = 18\nvalue = [18, 0]"] ;
465 -> 466 ;
467 [label="X[7] <= 0.5\ngini = 0.375\nsamples = 4\nvalue = [3, 1]"] ;
465 -> 467 ;
468 [label="gini = 0.0\nsamples = 3\nvalue = [3, 0]"] ;
467 -> 468 ;
469 [label="gini = 0.0\nsamples = 1\nvalue = [0, 1]"] ;
467 -> 469 ;
470 [label="X[4] <= 31.6\ngini = 0.5\nsamples = 2\nvalue = [1, 1]"] ;
464 -> 470 ;
471 [label="gini = 0.0\nsamples = 1\nvalue = [0, 1]"] ;
470 -> 471 ;
472 [label="gini = 0.0\nsamples = 1\nvalue = [1, 0]"] ;
470 -> 472 ;
473 [label="X[3] <= 152.215\ngini = 0.494\nsamples = 36\nvalue = [16, 20]"] ;
457 -> 473 ;
474 [label="X[7] <= 0.002\ngini = 0.245\nsamples = 14\nvalue = [2, 12]"] ;
473 -> 474 ;
475 [label="X[4] <= 30.5\ngini = 0.444\nsamples = 3\nvalue = [2, 1]"] ;
474 -> 475 ;
476 [label="gini = 0.0\nsamples = 2\nvalue = [2, 0]"] ;
475 -> 476 ;
477 [label="gini = 0.0\nsamples = 1\nvalue = [0, 1]"] ;
475 -> 477 ;
478 [label="gini = 0.0\nsamples = 11\nvalue = [0, 11]"] ;
474 -> 478 ;
479 [label="X[3] <= 218.645\ngini = 0.463\nsamples = 22\nvalue = [14, 8]"] ;
473 -> 479 ;
480 [label="X[0] <= 79.5\ngini = 0.165\nsamples = 11\nvalue = [10, 1]"] ;
479 -> 480 ;
481 [label="gini = 0.0\nsamples = 7\nvalue = [7, 0]"] ;
480 -> 481 ;
482 [label="X[3] <= 200.315\ngini = 0.375\nsamples = 4\nvalue = [3, 1]"] ;
480 -> 482 ;
483 [label="X[5] <= 0.5\ngini = 0.5\nsamples = 2\nvalue = [1, 1]"] ;
482 -> 483 ;
484 [label="gini = 0.0\nsamples = 1\nvalue = [1, 0]"] ;
483 -> 484 ;
485 [label="gini = 0.0\nsamples = 1\nvalue = [0, 1]"] ;
483 -> 485 ;
486 [label="gini = 0.0\nsamples = 2\nvalue = [2, 0]"] ;
482 -> 486 ;
487 [label="X[0] <= 78.5\ngini = 0.463\nsamples = 11\nvalue = [4, 7]"] ;
479 -> 487 ;
488 [label="X[4] <= 34.0\ngini = 0.219\nsamples = 8\nvalue = [1, 7]"] ;
487 -> 488 ;
489 [label="gini = 0.0\nsamples = 6\nvalue = [0, 6]"] ;
488 -> 489 ;
490 [label="X[4] <= 34.676\ngini = 0.5\nsamples = 2\nvalue = [1, 1]"] ;
488 -> 490 ;
491 [label="gini = 0.0\nsamples = 1\nvalue = [1, 0]"] ;
490 -> 491 ;
492 [label="gini = 0.0\nsamples = 1\nvalue = [0, 1]"] ;
490 -> 492 ;
493 [label="gini = 0.0\nsamples = 3\nvalue = [3, 0]"] ;
487 -> 493 ;
494 [label="X[2] <= 0.999\ngini = 0.224\nsamples = 652\nvalue = [84, 568]"] ;
208 -> 494 ;
495 [label="gini = 0.0\nsamples = 469\nvalue = [0, 469]"] ;
494 -> 495 ;
496 [label="X[3] <= 126.815\ngini = 0.497\nsamples = 183\nvalue = [84, 99]"] ;
494 -> 496 ;
497 [label="X[4] <= 32.3\ngini = 0.15\nsamples = 49\nvalue = [45, 4]"] ;
496 -> 497 ;
498 [label="X[3] <= 82.015\ngini = 0.095\nsamples = 40\nvalue = [38, 2]"] ;
497 -> 498 ;
499 [label="X[3] <= 81.095\ngini = 0.188\nsamples = 19\nvalue = [17, 2]"] ;
498 -> 499 ;
500 [label="X[1] <= 0.5\ngini = 0.105\nsamples = 18\nvalue = [17, 1]"] ;
499 -> 500 ;
501 [label="gini = 0.0\nsamples = 14\nvalue = [14, 0]"] ;
500 -> 501 ;
502 [label="X[4] <= 27.75\ngini = 0.375\nsamples = 4\nvalue = [3, 1]"] ;
500 -> 502 ;
503 [label="X[3] <= 73.625\ngini = 0.5\nsamples = 2\nvalue = [1, 1]"] ;
502 -> 503 ;
504 [label="gini = 0.0\nsamples = 1\nvalue = [0, 1]"] ;
503 -> 504 ;
505 [label="gini = 0.0\nsamples = 1\nvalue = [1, 0]"] ;
503 -> 505 ;
506 [label="gini = 0.0\nsamples = 2\nvalue = [2, 0]"] ;
502 -> 506 ;
507 [label="gini = 0.0\nsamples = 1\nvalue = [0, 1]"] ;
499 -> 507 ;
508 [label="gini = 0.0\nsamples = 21\nvalue = [21, 0]"] ;
498 -> 508 ;
509 [label="X[4] <= 32.7\ngini = 0.346\nsamples = 9\nvalue = [7, 2]"] ;
497 -> 509 ;
510 [label="gini = 0.0\nsamples = 1\nvalue = [0, 1]"] ;
509 -> 510 ;
511 [label="X[0] <= 61.0\ngini = 0.219\nsamples = 8\nvalue = [7, 1]"] ;
509 -> 511 ;
512 [label="gini = 0.0\nsamples = 1\nvalue = [0, 1]"] ;
511 -> 512 ;
513 [label="gini = 0.0\nsamples = 7\nvalue = [7, 0]"] ;
511 -> 513 ;
514 [label="X[15] <= 0.999\ngini = 0.413\nsamples = 134\nvalue = [39, 95]"] ;
496 -> 514 ;
515 [label="X[7] <= 0.004\ngini = 0.309\nsamples = 110\nvalue = [21, 89]"] ;
514 -> 515 ;
516 [label="X[15] <= 0.043\ngini = 0.5\nsamples = 22\nvalue = [11, 11]"] ;
515 -> 516 ;
517 [label="X[0] <= 78.5\ngini = 0.43\nsamples = 16\nvalue = [11, 5]"] ;
516 -> 517 ;
518 [label="X[4] <= 30.65\ngini = 0.337\nsamples = 14\nvalue = [11, 3]"] ;
517 -> 518 ;
519 [label="gini = 0.0\nsamples = 8\nvalue = [8, 0]"] ;
518 -> 519 ;
520 [label="X[16] <= 0.5\ngini = 0.5\nsamples = 6\nvalue = [3, 3]"] ;
518 -> 520 ;
521 [label="X[4] <= 35.1\ngini = 0.375\nsamples = 4\nvalue = [3, 1]"] ;
520 -> 521 ;
522 [label="gini = 0.0\nsamples = 3\nvalue = [3, 0]"] ;
521 -> 522 ;
523 [label="gini = 0.0\nsamples = 1\nvalue = [0, 1]"] ;
521 -> 523 ;
524 [label="gini = 0.0\nsamples = 2\nvalue = [0, 2]"] ;
520 -> 524 ;
525 [label="gini = 0.0\nsamples = 2\nvalue = [0, 2]"] ;
517 -> 525 ;
526 [label="gini = 0.0\nsamples = 6\nvalue = [0, 6]"] ;
516 -> 526 ;
527 [label="X[6] <= 0.992\ngini = 0.201\nsamples = 88\nvalue = [10, 78]"] ;
515 -> 527 ;
528 [label="gini = 0.0\nsamples = 51\nvalue = [0, 51]"] ;
527 -> 528 ;
529 [label="X[4] <= 27.1\ngini = 0.394\nsamples = 37\nvalue = [10, 27]"] ;
527 -> 529 ;
530 [label="gini = 0.0\nsamples = 3\nvalue = [3, 0]"] ;
529 -> 530 ;
531 [label="X[3] <= 216.001\ngini = 0.327\nsamples = 34\nvalue = [7, 27]"] ;
529 -> 531 ;
532 [label="X[13] <= 0.061\ngini = 0.5\nsamples = 14\nvalue = [7, 7]"] ;
531 -> 532 ;
533 [label="X[0] <= 75.0\ngini = 0.375\nsamples = 8\nvalue = [6, 2]"] ;
532 -> 533 ;
534 [label="gini = 0.0\nsamples = 6\nvalue = [6, 0]"] ;
533 -> 534 ;
535 [label="gini = 0.0\nsamples = 2\nvalue = [0, 2]"] ;
533 -> 535 ;
536 [label="X[0] <= 78.939\ngini = 0.278\nsamples = 6\nvalue = [1, 5]"] ;
532 -> 536 ;
537 [label="gini = 0.0\nsamples = 5\nvalue = [0, 5]"] ;
536 -> 537 ;
538 [label="gini = 0.0\nsamples = 1\nvalue = [1, 0]"] ;
536 -> 538 ;
539 [label="gini = 0.0\nsamples = 20\nvalue = [0, 20]"] ;
531 -> 539 ;
540 [label="X[0] <= 77.041\ngini = 0.375\nsamples = 24\nvalue = [18, 6]"] ;
514 -> 540 ;
541 [label="X[3] <= 236.67\ngini = 0.133\nsamples = 14\nvalue = [13, 1]"] ;
540 -> 541 ;
542 [label="gini = 0.0\nsamples = 12\nvalue = [12, 0]"] ;
541 -> 542 ;
543 [label="X[0] <= 68.5\ngini = 0.5\nsamples = 2\nvalue = [1, 1]"] ;
541 -> 543 ;
544 [label="gini = 0.0\nsamples = 1\nvalue = [1, 0]"] ;
543 -> 544 ;
545 [label="gini = 0.0\nsamples = 1\nvalue = [0, 1]"] ;
543 -> 545 ;
546 [label="X[1] <= 0.5\ngini = 0.5\nsamples = 10\nvalue = [5, 5]"] ;
540 -> 546 ;
547 [label="X[0] <= 80.5\ngini = 0.408\nsamples = 7\nvalue = [2, 5]"] ;
546 -> 547 ;
548 [label="X[7] <= 0.02\ngini = 0.278\nsamples = 6\nvalue = [1, 5]"] ;
547 -> 548 ;
549 [label="X[4] <= 29.4\ngini = 0.5\nsamples = 2\nvalue = [1, 1]"] ;
548 -> 549 ;
550 [label="gini = 0.0\nsamples = 1\nvalue = [0, 1]"] ;
549 -> 550 ;
551 [label="gini = 0.0\nsamples = 1\nvalue = [1, 0]"] ;
549 -> 551 ;
552 [label="gini = 0.0\nsamples = 4\nvalue = [0, 4]"] ;
548 -> 552 ;
553 [label="gini = 0.0\nsamples = 1\nvalue = [1, 0]"] ;
547 -> 553 ;
554 [label="gini = 0.0\nsamples = 3\nvalue = [3, 0]"] ;
546 -> 554 ;
555 [label="X[1] <= 0.0\ngini = 0.499\nsamples = 712\nvalue = [371, 341]"] ;
205 -> 555 ;
556 [label="X[0] <= 74.002\ngini = 0.399\nsamples = 417\nvalue = [302, 115]"] ;
555 -> 556 ;
557 [label="X[14] <= 0.025\ngini = 0.256\nsamples = 232\nvalue = [197, 35]"] ;
556 -> 557 ;
558 [label="X[4] <= 21.475\ngini = 0.099\nsamples = 153\nvalue = [145, 8]"] ;
557 -> 558 ;
559 [label="X[4] <= 21.225\ngini = 0.298\nsamples = 11\nvalue = [9, 2]"] ;
558 -> 559 ;
560 [label="gini = 0.0\nsamples = 6\nvalue = [6, 0]"] ;
559 -> 560 ;
561 [label="X[16] <= 0.5\ngini = 0.48\nsamples = 5\nvalue = [3, 2]"] ;
559 -> 561 ;
562 [label="X[0] <= 68.0\ngini = 0.444\nsamples = 3\nvalue = [1, 2]"] ;
561 -> 562 ;
563 [label="gini = 0.0\nsamples = 2\nvalue = [0, 2]"] ;
562 -> 563 ;
564 [label="gini = 0.0\nsamples = 1\nvalue = [1, 0]"] ;
562 -> 564 ;
565 [label="gini = 0.0\nsamples = 2\nvalue = [2, 0]"] ;
561 -> 565 ;
566 [label="X[0] <= 54.5\ngini = 0.081\nsamples = 142\nvalue = [136, 6]"] ;
558 -> 566 ;
567 [label="X[4] <= 35.95\ngini = 0.375\nsamples = 4\nvalue = [3, 1]"] ;
566 -> 567 ;
568 [label="gini = 0.0\nsamples = 3\nvalue = [3, 0]"] ;
567 -> 568 ;
569 [label="gini = 0.0\nsamples = 1\nvalue = [0, 1]"] ;
567 -> 569 ;
570 [label="X[0] <= 67.5\ngini = 0.07\nsamples = 138\nvalue = [133, 5]"] ;
566 -> 570 ;
571 [label="X[4] <= 35.35\ngini = 0.021\nsamples = 96\nvalue = [95, 1]"] ;
570 -> 571 ;
572 [label="gini = 0.0\nsamples = 79\nvalue = [79, 0]"] ;
571 -> 572 ;
573 [label="X[4] <= 35.55\ngini = 0.111\nsamples = 17\nvalue = [16, 1]"] ;
571 -> 573 ;
574 [label="X[15] <= 0.5\ngini = 0.5\nsamples = 2\nvalue = [1, 1]"] ;
573 -> 574 ;
575 [label="gini = 0.0\nsamples = 1\nvalue = [0, 1]"] ;
574 -> 575 ;
576 [label="gini = 0.0\nsamples = 1\nvalue = [1, 0]"] ;
574 -> 576 ;
577 [label="gini = 0.0\nsamples = 15\nvalue = [15, 0]"] ;
573 -> 577 ;
578 [label="X[6] <= 0.5\ngini = 0.172\nsamples = 42\nvalue = [38, 4]"] ;
570 -> 578 ;
579 [label="gini = 0.0\nsamples = 21\nvalue = [21, 0]"] ;
578 -> 579 ;
580 [label="X[3] <= 78.76\ngini = 0.308\nsamples = 21\nvalue = [17, 4]"] ;
578 -> 580 ;
581 [label="X[3] <= 70.47\ngini = 0.49\nsamples = 7\nvalue = [4, 3]"] ;
580 -> 581 ;
582 [label="gini = 0.0\nsamples = 4\nvalue = [4, 0]"] ;
581 -> 582 ;
583 [label="gini = 0.0\nsamples = 3\nvalue = [0, 3]"] ;
581 -> 583 ;
584 [label="X[2] <= 0.5\ngini = 0.133\nsamples = 14\nvalue = [13, 1]"] ;
580 -> 584 ;
585 [label="gini = 0.0\nsamples = 12\nvalue = [12, 0]"] ;
584 -> 585 ;
586 [label="X[4] <= 30.6\ngini = 0.5\nsamples = 2\nvalue = [1, 1]"] ;
584 -> 586 ;
587 [label="gini = 0.0\nsamples = 1\nvalue = [0, 1]"] ;
586 -> 587 ;
588 [label="gini = 0.0\nsamples = 1\nvalue = [1, 0]"] ;
586 -> 588 ;
589 [label="X[14] <= 0.989\ngini = 0.45\nsamples = 79\nvalue = [52, 27]"] ;
557 -> 589 ;
590 [label="gini = 0.0\nsamples = 14\nvalue = [0, 14]"] ;
589 -> 590 ;
591 [label="X[2] <= 0.044\ngini = 0.32\nsamples = 65\nvalue = [52, 13]"] ;
589 -> 591 ;
592 [label="X[3] <= 76.9\ngini = 0.145\nsamples = 51\nvalue = [47, 4]"] ;
591 -> 592 ;
593 [label="X[4] <= 25.45\ngini = 0.298\nsamples = 11\nvalue = [9, 2]"] ;
592 -> 593 ;
594 [label="gini = 0.0\nsamples = 1\nvalue = [0, 1]"] ;
593 -> 594 ;
595 [label="X[4] <= 29.95\ngini = 0.18\nsamples = 10\nvalue = [9, 1]"] ;
593 -> 595 ;
596 [label="gini = 0.0\nsamples = 5\nvalue = [5, 0]"] ;
595 -> 596 ;
597 [label="X[3] <= 69.905\ngini = 0.32\nsamples = 5\nvalue = [4, 1]"] ;
595 -> 597 ;
598 [label="X[0] <= 64.5\ngini = 0.5\nsamples = 2\nvalue = [1, 1]"] ;
597 -> 598 ;
599 [label="gini = 0.0\nsamples = 1\nvalue = [1, 0]"] ;
598 -> 599 ;
600 [label="gini = 0.0\nsamples = 1\nvalue = [0, 1]"] ;
598 -> 600 ;
601 [label="gini = 0.0\nsamples = 3\nvalue = [3, 0]"] ;
597 -> 601 ;
602 [label="X[3] <= 109.725\ngini = 0.095\nsamples = 40\nvalue = [38, 2]"] ;
592 -> 602 ;
603 [label="gini = 0.0\nsamples = 26\nvalue = [26, 0]"] ;
602 -> 603 ;
604 [label="X[3] <= 113.295\ngini = 0.245\nsamples = 14\nvalue = [12, 2]"] ;
602 -> 604 ;
605 [label="gini = 0.0\nsamples = 1\nvalue = [0, 1]"] ;
604 -> 605 ;
606 [label="X[0] <= 70.5\ngini = 0.142\nsamples = 13\nvalue = [12, 1]"] ;
604 -> 606 ;
607 [label="gini = 0.0\nsamples = 9\nvalue = [9, 0]"] ;
606 -> 607 ;
608 [label="X[3] <= 202.01\ngini = 0.375\nsamples = 4\nvalue = [3, 1]"] ;
606 -> 608 ;
609 [label="X[4] <= 28.1\ngini = 0.5\nsamples = 2\nvalue = [1, 1]"] ;
608 -> 609 ;
610 [label="gini = 0.0\nsamples = 1\nvalue = [1, 0]"] ;
609 -> 610 ;
611 [label="gini = 0.0\nsamples = 1\nvalue = [0, 1]"] ;
609 -> 611 ;
612 [label="gini = 0.0\nsamples = 2\nvalue = [2, 0]"] ;
608 -> 612 ;
613 [label="X[2] <= 0.972\ngini = 0.459\nsamples = 14\nvalue = [5, 9]"] ;
591 -> 613 ;
614 [label="gini = 0.0\nsamples = 8\nvalue = [0, 8]"] ;
613 -> 614 ;
615 [label="X[4] <= 33.75\ngini = 0.278\nsamples = 6\nvalue = [5, 1]"] ;
613 -> 615 ;
616 [label="gini = 0.0\nsamples = 5\nvalue = [5, 0]"] ;
615 -> 616 ;
617 [label="gini = 0.0\nsamples = 1\nvalue = [0, 1]"] ;
615 -> 617 ;
618 [label="X[15] <= 0.004\ngini = 0.491\nsamples = 185\nvalue = [105, 80]"] ;
556 -> 618 ;
619 [label="X[4] <= 21.95\ngini = 0.314\nsamples = 82\nvalue = [66, 16]"] ;
618 -> 619 ;
620 [label="X[4] <= 21.275\ngini = 0.444\nsamples = 18\nvalue = [6, 12]"] ;
619 -> 620 ;
621 [label="X[2] <= 0.5\ngini = 0.278\nsamples = 6\nvalue = [5, 1]"] ;
620 -> 621 ;
622 [label="gini = 0.0\nsamples = 5\nvalue = [5, 0]"] ;
621 -> 622 ;
623 [label="gini = 0.0\nsamples = 1\nvalue = [0, 1]"] ;
621 -> 623 ;
624 [label="X[16] <= 0.5\ngini = 0.153\nsamples = 12\nvalue = [1, 11]"] ;
620 -> 624 ;
625 [label="gini = 0.0\nsamples = 11\nvalue = [0, 11]"] ;
624 -> 625 ;
626 [label="gini = 0.0\nsamples = 1\nvalue = [1, 0]"] ;
624 -> 626 ;
627 [label="X[3] <= 248.225\ngini = 0.117\nsamples = 64\nvalue = [60, 4]"] ;
619 -> 627 ;
628 [label="X[0] <= 78.5\ngini = 0.092\nsamples = 62\nvalue = [59, 3]"] ;
627 -> 628 ;
629 [label="X[4] <= 29.45\ngini = 0.198\nsamples = 27\nvalue = [24, 3]"] ;
628 -> 629 ;
630 [label="X[3] <= 120.905\ngini = 0.32\nsamples = 15\nvalue = [12, 3]"] ;
629 -> 630 ;
631 [label="X[4] <= 28.4\ngini = 0.153\nsamples = 12\nvalue = [11, 1]"] ;
630 -> 631 ;
632 [label="gini = 0.0\nsamples = 11\nvalue = [11, 0]"] ;
631 -> 632 ;
633 [label="gini = 0.0\nsamples = 1\nvalue = [0, 1]"] ;
631 -> 633 ;
634 [label="X[4] <= 27.4\ngini = 0.444\nsamples = 3\nvalue = [1, 2]"] ;
630 -> 634 ;
635 [label="gini = 0.0\nsamples = 2\nvalue = [0, 2]"] ;
634 -> 635 ;
636 [label="gini = 0.0\nsamples = 1\nvalue = [1, 0]"] ;
634 -> 636 ;
637 [label="gini = 0.0\nsamples = 12\nvalue = [12, 0]"] ;
629 -> 637 ;
638 [label="gini = 0.0\nsamples = 35\nvalue = [35, 0]"] ;
628 -> 638 ;
639 [label="X[4] <= 29.2\ngini = 0.5\nsamples = 2\nvalue = [1, 1]"] ;
627 -> 639 ;
640 [label="gini = 0.0\nsamples = 1\nvalue = [1, 0]"] ;
639 -> 640 ;
641 [label="gini = 0.0\nsamples = 1\nvalue = [0, 1]"] ;
639 -> 641 ;
642 [label="X[6] <= 0.998\ngini = 0.471\nsamples = 103\nvalue = [39, 64]"] ;
618 -> 642 ;
643 [label="X[7] <= 0.0\ngini = 0.323\nsamples = 74\nvalue = [15, 59]"] ;
642 -> 643 ;
644 [label="X[4] <= 20.037\ngini = 0.493\nsamples = 34\nvalue = [15, 19]"] ;
643 -> 644 ;
645 [label="gini = 0.0\nsamples = 9\nvalue = [0, 9]"] ;
644 -> 645 ;
646 [label="X[4] <= 30.3\ngini = 0.48\nsamples = 25\nvalue = [15, 10]"] ;
644 -> 646 ;
647 [label="X[4] <= 24.85\ngini = 0.153\nsamples = 12\nvalue = [11, 1]"] ;
646 -> 647 ;
648 [label="X[4] <= 22.25\ngini = 0.5\nsamples = 2\nvalue = [1, 1]"] ;
647 -> 648 ;
649 [label="gini = 0.0\nsamples = 1\nvalue = [1, 0]"] ;
648 -> 649 ;
650 [label="gini = 0.0\nsamples = 1\nvalue = [0, 1]"] ;
648 -> 650 ;
651 [label="gini = 0.0\nsamples = 10\nvalue = [10, 0]"] ;
647 -> 651 ;
652 [label="X[4] <= 32.2\ngini = 0.426\nsamples = 13\nvalue = [4, 9]"] ;
646 -> 652 ;
653 [label="X[0] <= 76.0\ngini = 0.18\nsamples = 10\nvalue = [1, 9]"] ;
652 -> 653 ;
654 [label="gini = 0.0\nsamples = 1\nvalue = [1, 0]"] ;
653 -> 654 ;
655 [label="gini = 0.0\nsamples = 9\nvalue = [0, 9]"] ;
653 -> 655 ;
656 [label="gini = 0.0\nsamples = 3\nvalue = [3, 0]"] ;
652 -> 656 ;
657 [label="gini = 0.0\nsamples = 40\nvalue = [0, 40]"] ;
643 -> 657 ;
658 [label="X[4] <= 22.15\ngini = 0.285\nsamples = 29\nvalue = [24, 5]"] ;
642 -> 658 ;
659 [label="gini = 0.0\nsamples = 1\nvalue = [0, 1]"] ;
658 -> 659 ;
660 [label="X[4] <= 26.3\ngini = 0.245\nsamples = 28\nvalue = [24, 4]"] ;
658 -> 660 ;
661 [label="gini = 0.0\nsamples = 10\nvalue = [10, 0]"] ;
660 -> 661 ;
662 [label="X[4] <= 28.4\ngini = 0.346\nsamples = 18\nvalue = [14, 4]"] ;
660 -> 662 ;
663 [label="gini = 0.0\nsamples = 2\nvalue = [0, 2]"] ;
662 -> 663 ;
664 [label="X[4] <= 33.35\ngini = 0.219\nsamples = 16\nvalue = [14, 2]"] ;
662 -> 664 ;
665 [label="gini = 0.0\nsamples = 7\nvalue = [7, 0]"] ;
664 -> 665 ;
666 [label="X[4] <= 34.55\ngini = 0.346\nsamples = 9\nvalue = [7, 2]"] ;
664 -> 666 ;
667 [label="X[3] <= 75.22\ngini = 0.48\nsamples = 5\nvalue = [3, 2]"] ;
666 -> 667 ;
668 [label="gini = 0.0\nsamples = 2\nvalue = [2, 0]"] ;
667 -> 668 ;
669 [label="X[0] <= 79.0\ngini = 0.444\nsamples = 3\nvalue = [1, 2]"] ;
667 -> 669 ;
670 [label="gini = 0.0\nsamples = 1\nvalue = [1, 0]"] ;
669 -> 670 ;
671 [label="gini = 0.0\nsamples = 2\nvalue = [0, 2]"] ;
669 -> 671 ;
672 [label="gini = 0.0\nsamples = 4\nvalue = [4, 0]"] ;
666 -> 672 ;
673 [label="X[1] <= 0.994\ngini = 0.358\nsamples = 295\nvalue = [69, 226]"] ;
555 -> 673 ;
674 [label="gini = 0.0\nsamples = 134\nvalue = [0, 134]"] ;
673 -> 674 ;
675 [label="X[0] <= 65.5\ngini = 0.49\nsamples = 161\nvalue = [69, 92]"] ;
673 -> 675 ;
676 [label="X[3] <= 76.5\ngini = 0.1\nsamples = 19\nvalue = [18, 1]"] ;
675 -> 676 ;
677 [label="X[3] <= 75.945\ngini = 0.375\nsamples = 4\nvalue = [3, 1]"] ;
676 -> 677 ;
678 [label="gini = 0.0\nsamples = 3\nvalue = [3, 0]"] ;
677 -> 678 ;
679 [label="gini = 0.0\nsamples = 1\nvalue = [0, 1]"] ;
677 -> 679 ;
680 [label="gini = 0.0\nsamples = 15\nvalue = [15, 0]"] ;
676 -> 680 ;
681 [label="X[3] <= 207.025\ngini = 0.46\nsamples = 142\nvalue = [51, 91]"] ;
675 -> 681 ;
682 [label="X[2] <= 0.997\ngini = 0.424\nsamples = 131\nvalue = [40, 91]"] ;
681 -> 682 ;
683 [label="X[3] <= 180.566\ngini = 0.381\nsamples = 121\nvalue = [31, 90]"] ;
682 -> 683 ;
684 [label="X[4] <= 30.773\ngini = 0.473\nsamples = 73\nvalue = [28, 45]"] ;
683 -> 684 ;
685 [label="X[3] <= 73.945\ngini = 0.499\nsamples = 48\nvalue = [25, 23]"] ;
684 -> 685 ;
686 [label="X[4] <= 24.402\ngini = 0.287\nsamples = 23\nvalue = [4, 19]"] ;
685 -> 686 ;
687 [label="gini = 0.0\nsamples = 2\nvalue = [2, 0]"] ;
686 -> 687 ;
688 [label="X[0] <= 81.452\ngini = 0.172\nsamples = 21\nvalue = [2, 19]"] ;
686 -> 688 ;
689 [label="X[4] <= 29.0\ngini = 0.095\nsamples = 20\nvalue = [1, 19]"] ;
688 -> 689 ;
690 [label="gini = 0.0\nsamples = 19\nvalue = [0, 19]"] ;
689 -> 690 ;
691 [label="gini = 0.0\nsamples = 1\nvalue = [1, 0]"] ;
689 -> 691 ;
692 [label="gini = 0.0\nsamples = 1\nvalue = [1, 0]"] ;
688 -> 692 ;
693 [label="X[0] <= 68.528\ngini = 0.269\nsamples = 25\nvalue = [21, 4]"] ;
685 -> 693 ;
694 [label="gini = 0.0\nsamples = 2\nvalue = [0, 2]"] ;
693 -> 694 ;
695 [label="X[3] <= 164.36\ngini = 0.159\nsamples = 23\nvalue = [21, 2]"] ;
693 -> 695 ;
696 [label="X[4] <= 30.6\ngini = 0.091\nsamples = 21\nvalue = [20, 1]"] ;
695 -> 696 ;
697 [label="gini = 0.0\nsamples = 19\nvalue = [19, 0]"] ;
696 -> 697 ;
698 [label="X[6] <= 0.5\ngini = 0.5\nsamples = 2\nvalue = [1, 1]"] ;
696 -> 698 ;
699 [label="gini = 0.0\nsamples = 1\nvalue = [0, 1]"] ;
698 -> 699 ;
700 [label="gini = 0.0\nsamples = 1\nvalue = [1, 0]"] ;
698 -> 700 ;
701 [label="X[6] <= 0.5\ngini = 0.5\nsamples = 2\nvalue = [1, 1]"] ;
695 -> 701 ;
702 [label="gini = 0.0\nsamples = 1\nvalue = [0, 1]"] ;
701 -> 702 ;
703 [label="gini = 0.0\nsamples = 1\nvalue = [1, 0]"] ;
701 -> 703 ;
704 [label="X[3] <= 67.011\ngini = 0.211\nsamples = 25\nvalue = [3, 22]"] ;
684 -> 704 ;
705 [label="gini = 0.0\nsamples = 2\nvalue = [2, 0]"] ;
704 -> 705 ;
706 [label="X[3] <= 143.59\ngini = 0.083\nsamples = 23\nvalue = [1, 22]"] ;
704 -> 706 ;
707 [label="gini = 0.0\nsamples = 22\nvalue = [0, 22]"] ;
706 -> 707 ;
708 [label="gini = 0.0\nsamples = 1\nvalue = [1, 0]"] ;
706 -> 708 ;
709 [label="X[5] <= 0.5\ngini = 0.117\nsamples = 48\nvalue = [3, 45]"] ;
683 -> 709 ;
710 [label="gini = 0.0\nsamples = 1\nvalue = [1, 0]"] ;
709 -> 710 ;
711 [label="X[15] <= 0.96\ngini = 0.081\nsamples = 47\nvalue = [2, 45]"] ;
709 -> 711 ;
712 [label="gini = 0.0\nsamples = 36\nvalue = [0, 36]"] ;
711 -> 712 ;
713 [label="X[0] <= 74.0\ngini = 0.298\nsamples = 11\nvalue = [2, 9]"] ;
711 -> 713 ;
714 [label="gini = 0.0\nsamples = 8\nvalue = [0, 8]"] ;
713 -> 714 ;
715 [label="X[4] <= 23.35\ngini = 0.444\nsamples = 3\nvalue = [2, 1]"] ;
713 -> 715 ;
716 [label="gini = 0.0\nsamples = 1\nvalue = [0, 1]"] ;
715 -> 716 ;
717 [label="gini = 0.0\nsamples = 2\nvalue = [2, 0]"] ;
715 -> 717 ;
718 [label="X[5] <= 0.5\ngini = 0.18\nsamples = 10\nvalue = [9, 1]"] ;
682 -> 718 ;
719 [label="gini = 0.0\nsamples = 1\nvalue = [0, 1]"] ;
718 -> 719 ;
720 [label="gini = 0.0\nsamples = 9\nvalue = [9, 0]"] ;
718 -> 720 ;
721 [label="gini = 0.0\nsamples = 11\nvalue = [11, 0]"] ;
681 -> 721 ;
722 [label="X[2] <= 0.294\ngini = 0.358\nsamples = 274\nvalue = [210, 64]"] ;
204 -> 722 ;
723 [label="X[4] <= 22.45\ngini = 0.296\nsamples = 233\nvalue = [191, 42]"] ;
722 -> 723 ;
724 [label="X[3] <= 173.51\ngini = 0.5\nsamples = 38\nvalue = [19, 19]"] ;
723 -> 724 ;
725 [label="X[3] <= 68.228\ngini = 0.435\nsamples = 25\nvalue = [17, 8]"] ;
724 -> 725 ;
726 [label="X[3] <= 60.39\ngini = 0.245\nsamples = 7\nvalue = [1, 6]"] ;
725 -> 726 ;
727 [label="gini = 0.0\nsamples = 1\nvalue = [1, 0]"] ;
726 -> 727 ;
728 [label="gini = 0.0\nsamples = 6\nvalue = [0, 6]"] ;
726 -> 728 ;
729 [label="X[0] <= 78.5\ngini = 0.198\nsamples = 18\nvalue = [16, 2]"] ;
725 -> 729 ;
730 [label="gini = 0.0\nsamples = 14\nvalue = [14, 0]"] ;
729 -> 730 ;
731 [label="X[3] <= 96.72\ngini = 0.5\nsamples = 4\nvalue = [2, 2]"] ;
729 -> 731 ;
732 [label="gini = 0.0\nsamples = 2\nvalue = [2, 0]"] ;
731 -> 732 ;
733 [label="gini = 0.0\nsamples = 2\nvalue = [0, 2]"] ;
731 -> 733 ;
734 [label="X[15] <= 0.96\ngini = 0.26\nsamples = 13\nvalue = [2, 11]"] ;
724 -> 734 ;
735 [label="gini = 0.0\nsamples = 11\nvalue = [0, 11]"] ;
734 -> 735 ;
736 [label="gini = 0.0\nsamples = 2\nvalue = [2, 0]"] ;
734 -> 736 ;
737 [label="X[0] <= 54.97\ngini = 0.208\nsamples = 195\nvalue = [172, 23]"] ;
723 -> 737 ;
738 [label="X[0] <= 54.176\ngini = 0.469\nsamples = 16\nvalue = [10, 6]"] ;
737 -> 738 ;
739 [label="X[16] <= 0.5\ngini = 0.165\nsamples = 11\nvalue = [10, 1]"] ;
738 -> 739 ;
740 [label="gini = 0.0\nsamples = 9\nvalue = [9, 0]"] ;
739 -> 740 ;
741 [label="X[7] <= 0.5\ngini = 0.5\nsamples = 2\nvalue = [1, 1]"] ;
739 -> 741 ;
742 [label="gini = 0.0\nsamples = 1\nvalue = [0, 1]"] ;
741 -> 742 ;
743 [label="gini = 0.0\nsamples = 1\nvalue = [1, 0]"] ;
741 -> 743 ;
744 [label="gini = 0.0\nsamples = 5\nvalue = [0, 5]"] ;
738 -> 744 ;
745 [label="X[0] <= 80.5\ngini = 0.172\nsamples = 179\nvalue = [162, 17]"] ;
737 -> 745 ;
746 [label="X[13] <= 0.008\ngini = 0.156\nsamples = 176\nvalue = [161, 15]"] ;
745 -> 746 ;
747 [label="X[3] <= 257.655\ngini = 0.107\nsamples = 141\nvalue = [133, 8]"] ;
746 -> 747 ;
748 [label="X[1] <= 0.295\ngini = 0.096\nsamples = 138\nvalue = [131, 7]"] ;
747 -> 748 ;
749 [label="X[0] <= 68.5\ngini = 0.065\nsamples = 118\nvalue = [114, 4]"] ;
748 -> 749 ;
750 [label="X[4] <= 41.5\ngini = 0.023\nsamples = 85\nvalue = [84, 1]"] ;
749 -> 750 ;
751 [label="gini = 0.0\nsamples = 76\nvalue = [76, 0]"] ;
750 -> 751 ;
752 [label="X[4] <= 43.2\ngini = 0.198\nsamples = 9\nvalue = [8, 1]"] ;
750 -> 752 ;
753 [label="gini = 0.0\nsamples = 1\nvalue = [0, 1]"] ;
752 -> 753 ;
754 [label="gini = 0.0\nsamples = 8\nvalue = [8, 0]"] ;
752 -> 754 ;
755 [label="X[0] <= 69.5\ngini = 0.165\nsamples = 33\nvalue = [30, 3]"] ;
749 -> 755 ;
756 [label="gini = 0.0\nsamples = 1\nvalue = [0, 1]"] ;
755 -> 756 ;
757 [label="X[3] <= 115.585\ngini = 0.117\nsamples = 32\nvalue = [30, 2]"] ;
755 -> 757 ;
758 [label="gini = 0.0\nsamples = 19\nvalue = [19, 0]"] ;
757 -> 758 ;
759 [label="X[3] <= 137.44\ngini = 0.26\nsamples = 13\nvalue = [11, 2]"] ;
757 -> 759 ;
760 [label="gini = 0.0\nsamples = 1\nvalue = [0, 1]"] ;
759 -> 760 ;
761 [label="X[0] <= 76.5\ngini = 0.153\nsamples = 12\nvalue = [11, 1]"] ;
759 -> 761 ;
762 [label="gini = 0.0\nsamples = 9\nvalue = [9, 0]"] ;
761 -> 762 ;
763 [label="X[4] <= 30.05\ngini = 0.444\nsamples = 3\nvalue = [2, 1]"] ;
761 -> 763 ;
764 [label="gini = 0.0\nsamples = 2\nvalue = [2, 0]"] ;
763 -> 764 ;
765 [label="gini = 0.0\nsamples = 1\nvalue = [0, 1]"] ;
763 -> 765 ;
766 [label="X[0] <= 57.5\ngini = 0.255\nsamples = 20\nvalue = [17, 3]"] ;
748 -> 766 ;
767 [label="X[16] <= 0.5\ngini = 0.375\nsamples = 4\nvalue = [1, 3]"] ;
766 -> 767 ;
768 [label="gini = 0.0\nsamples = 3\nvalue = [0, 3]"] ;
767 -> 768 ;
769 [label="gini = 0.0\nsamples = 1\nvalue = [1, 0]"] ;
767 -> 769 ;
770 [label="gini = 0.0\nsamples = 16\nvalue = [16, 0]"] ;
766 -> 770 ;
771 [label="X[4] <= 32.5\ngini = 0.444\nsamples = 3\nvalue = [2, 1]"] ;
747 -> 771 ;
772 [label="gini = 0.0\nsamples = 2\nvalue = [2, 0]"] ;
771 -> 772 ;
773 [label="gini = 0.0\nsamples = 1\nvalue = [0, 1]"] ;
771 -> 773 ;
774 [label="X[4] <= 28.143\ngini = 0.32\nsamples = 35\nvalue = [28, 7]"] ;
746 -> 774 ;
775 [label="X[4] <= 26.766\ngini = 0.497\nsamples = 13\nvalue = [6, 7]"] ;
774 -> 775 ;
776 [label="X[3] <= 99.13\ngini = 0.375\nsamples = 8\nvalue = [6, 2]"] ;
775 -> 776 ;
777 [label="gini = 0.0\nsamples = 4\nvalue = [4, 0]"] ;
776 -> 777 ;
778 [label="X[3] <= 113.688\ngini = 0.5\nsamples = 4\nvalue = [2, 2]"] ;
776 -> 778 ;
779 [label="gini = 0.0\nsamples = 2\nvalue = [0, 2]"] ;
778 -> 779 ;
780 [label="gini = 0.0\nsamples = 2\nvalue = [2, 0]"] ;
778 -> 780 ;
781 [label="gini = 0.0\nsamples = 5\nvalue = [0, 5]"] ;
775 -> 781 ;
782 [label="gini = 0.0\nsamples = 22\nvalue = [22, 0]"] ;
774 -> 782 ;
783 [label="X[4] <= 36.2\ngini = 0.444\nsamples = 3\nvalue = [1, 2]"] ;
745 -> 783 ;
784 [label="gini = 0.0\nsamples = 2\nvalue = [0, 2]"] ;
783 -> 784 ;
785 [label="gini = 0.0\nsamples = 1\nvalue = [1, 0]"] ;
783 -> 785 ;
786 [label="X[3] <= 208.896\ngini = 0.497\nsamples = 41\nvalue = [19, 22]"] ;
722 -> 786 ;
787 [label="X[2] <= 0.925\ngini = 0.375\nsamples = 24\nvalue = [18, 6]"] ;
786 -> 787 ;
788 [label="gini = 0.0\nsamples = 3\nvalue = [0, 3]"] ;
787 -> 788 ;
789 [label="X[0] <= 81.5\ngini = 0.245\nsamples = 21\nvalue = [18, 3]"] ;
787 -> 789 ;
790 [label="X[4] <= 35.8\ngini = 0.18\nsamples = 20\nvalue = [18, 2]"] ;
789 -> 790 ;
791 [label="X[13] <= 0.5\ngini = 0.105\nsamples = 18\nvalue = [17, 1]"] ;
790 -> 791 ;
792 [label="gini = 0.0\nsamples = 15\nvalue = [15, 0]"] ;
791 -> 792 ;
793 [label="X[4] <= 29.75\ngini = 0.444\nsamples = 3\nvalue = [2, 1]"] ;
791 -> 793 ;
794 [label="gini = 0.0\nsamples = 1\nvalue = [0, 1]"] ;
793 -> 794 ;
795 [label="gini = 0.0\nsamples = 2\nvalue = [2, 0]"] ;
793 -> 795 ;
796 [label="X[3] <= 98.285\ngini = 0.5\nsamples = 2\nvalue = [1, 1]"] ;
790 -> 796 ;
797 [label="gini = 0.0\nsamples = 1\nvalue = [1, 0]"] ;
796 -> 797 ;
798 [label="gini = 0.0\nsamples = 1\nvalue = [0, 1]"] ;
796 -> 798 ;
799 [label="gini = 0.0\nsamples = 1\nvalue = [0, 1]"] ;
789 -> 799 ;
800 [label="X[4] <= 25.238\ngini = 0.111\nsamples = 17\nvalue = [1, 16]"] ;
786 -> 800 ;
801 [label="gini = 0.0\nsamples = 1\nvalue = [1, 0]"] ;
800 -> 801 ;
802 [label="gini = 0.0\nsamples = 16\nvalue = [0, 16]"] ;
800 -> 802 ;
}